{"learner":{"attributes":{"best_iteration":"446","best_score":"0.019974"},"feature_names":["date_id","time_id","symbol_id","feature_00","feature_01","feature_02","feature_03","feature_04","feature_05","feature_06","feature_07","feature_08","feature_09","feature_10","feature_11","feature_12","feature_13","feature_14","feature_15","feature_16","feature_17","feature_18","feature_19","feature_20","feature_21","feature_22","feature_23","feature_24","feature_25","feature_26","feature_27","feature_28","feature_29","feature_30","feature_31","feature_32","feature_33","feature_34","feature_35","feature_36","feature_37","feature_38","feature_39","feature_40","feature_41","feature_42","feature_43","feature_44","feature_45","feature_46","feature_47","feature_48","feature_49","feature_50","feature_51","feature_52","feature_53","feature_54","feature_55","feature_56","feature_57","feature_58","feature_59","feature_60","feature_61","feature_62","feature_63","feature_64","feature_65","feature_66","feature_67","feature_68","feature_69","feature_70","feature_71","feature_72","feature_73","feature_74","feature_75","feature_76","feature_77","feature_78"],"feature_types":["float","float","float","float","float","float","float","float","float","float","float","float","float","float","float","float","float","float","float","float","float","float","float","float","float","float","float","float","float","float","float","float","float","float","float","float","float","float","float","float","float","float","float","float","float","float","float","float","float","float","float","float","float","float","float","float","float","float","float","float","float","float","float","float","float","float","float","float","float","float","float","float","float","float","float","float","float","float","float","float","float","float"],"gradient_booster":{"model":{"gbtree_model_param":{"num_parallel_tree":"1","num_trees":"447"},"iteration_indptr":[0,1,2,3,4,5,6,7,8,9,10,11,12,13,14,15,16,17,18,19,20,21,22,23,24,25,26,27,28,29,30,31,32,33,34,35,36,37,38,39,40,41,42,43,44,45,46,47,48,49,50,51,52,53,54,55,56,57,58,59,60,61,62,63,64,65,66,67,68,69,70,71,72,73,74,75,76,77,78,79,80,81,82,83,84,85,86,87,88,89,90,91,92,93,94,95,96,97,98,99,100,101,102,103,104,105,106,107,108,109,110,111,112,113,114,115,116,117,118,119,120,121,122,123,124,125,126,127,128,129,130,131,132,133,134,135,136,137,138,139,140,141,142,143,144,145,146,147,148,149,150,151,152,153,154,155,156,157,158,159,160,161,162,163,164,165,166,167,168,169,170,171,172,173,174,175,176,177,178,179,180,181,182,183,184,185,186,187,188,189,190,191,192,193,194,195,196,197,198,199,200,201,202,203,204,205,206,207,208,209,210,211,212,213,214,215,216,217,218,219,220,221,222,223,224,225,226,227,228,229,230,231,232,233,234,235,236,237,238,239,240,241,242,243,244,245,246,247,248,249,250,251,252,253,254,255,256,257,258,259,260,261,262,263,264,265,266,267,268,269,270,271,272,273,274,275,276,277,278,279,280,281,282,283,284,285,286,287,288,289,290,291,292,293,294,295,296,297,298,299,300,301,302,303,304,305,306,307,308,309,310,311,312,313,314,315,316,317,318,319,320,321,322,323,324,325,326,327,328,329,330,331,332,333,334,335,336,337,338,339,340,341,342,343,344,345,346,347,348,349,350,351,352,353,354,355,356,357,358,359,360,361,362,363,364,365,366,367,368,369,370,371,372,373,374,375,376,377,378,379,380,381,382,383,384,385,386,387,388,389,390,391,392,393,394,395,396,397,398,399,400,401,402,403,404,405,406,407,408,409,410,411,412,413,414,415,416,417,418,419,420,421,422,423,424,425,426,427,428,429,430,431,432,433,434,435,436,437,438,439,440,441,442,443,444,445,446,447],"tree_info":[0,0,0,0,0,0,0,0,0,0,0,0,0,0,0,0,0,0,0,0,0,0,0,0,0,0,0,0,0,0,0,0,0,0,0,0,0,0,0,0,0,0,0,0,0,0,0,0,0,0,0,0,0,0,0,0,0,0,0,0,0,0,0,0,0,0,0,0,0,0,0,0,0,0,0,0,0,0,0,0,0,0,0,0,0,0,0,0,0,0,0,0,0,0,0,0,0,0,0,0,0,0,0,0,0,0,0,0,0,0,0,0,0,0,0,0,0,0,0,0,0,0,0,0,0,0,0,0,0,0,0,0,0,0,0,0,0,0,0,0,0,0,0,0,0,0,0,0,0,0,0,0,0,0,0,0,0,0,0,0,0,0,0,0,0,0,0,0,0,0,0,0,0,0,0,0,0,0,0,0,0,0,0,0,0,0,0,0,0,0,0,0,0,0,0,0,0,0,0,0,0,0,0,0,0,0,0,0,0,0,0,0,0,0,0,0,0,0,0,0,0,0,0,0,0,0,0,0,0,0,0,0,0,0,0,0,0,0,0,0,0,0,0,0,0,0,0,0,0,0,0,0,0,0,0,0,0,0,0,0,0,0,0,0,0,0,0,0,0,0,0,0,0,0,0,0,0,0,0,0,0,0,0,0,0,0,0,0,0,0,0,0,0,0,0,0,0,0,0,0,0,0,0,0,0,0,0,0,0,0,0,0,0,0,0,0,0,0,0,0,0,0,0,0,0,0,0,0,0,0,0,0,0,0,0,0,0,0,0,0,0,0,0,0,0,0,0,0,0,0,0,0,0,0,0,0,0,0,0,0,0,0,0,0,0,0,0,0,0,0,0,0,0,0,0,0,0,0,0,0,0,0,0,0,0,0,0,0,0,0,0,0,0,0,0,0,0,0,0,0,0,0,0,0,0,0,0,0,0,0,0,0,0,0,0,0,0,0,0,0,0,0,0,0,0,0,0,0,0,0,0,0,0,0,0,0,0,0,0,0,0,0,0,0,0,0,0],"trees":[{"base_weights":[-9.59301E-5,2.8340967E-2,-1.894115E-2,1.8198617E-1,2.5269544E-2,-1.2974688E-2,-7.252267E-2,1.412375E-1,6.023487E-1,4.1704703E-2,1.0128472E-2,-1.3423596E-2,5.1036656E-1,-3.5550423E-2,-1.1535095E-1,9.6427105E-2,2.3377746E-1,5.65638E-1,2.398702E0,4.046012E-2,1.0862061E0,3.5733364E-3,1.1642111E-1,1.856696E-2,-2.0701373E-2,2.0148598E-1,2.9716365E0,-3.859822E-2,8.209933E-1,-2.0341286E-1,-9.633919E-2,7.407353E-2,3.1493005E-1,1.9121908E-1,4.6504143E-1,3.7059382E-1,8.0905885E-1,1.6075231E0,4.349664E0,3.5213023E-2,1.0298963E-1,6.1912954E-1,2.4814906E0,1.1026385E-2,-4.6347506E-2,7.706193E-2,2.4611908E-1,9.167836E-2,7.93164E-3,-5.9307697E-3,-3.367765E-2,1.26948E0,3.379573E-2,3.5279636E0,1.226129E0,-4.3918118E-2,4.772421E-2,1.8751433E0,3.514706E-1,-1.9500664E-1,-1.1845819E0,-1.0122416E-1,5.332726E-2,3.1834773E-3,7.461042E-4,9.464387E-3,3.145819E-3,1.8590917E-3,4.3736035E-3,9.236407E-3,3.5140333E-3,4.3129777E-3,2.9048946E-2,1.7310185E-2,5.158495E-3,2.3291616E-3,3.3505674E-2,1.1054401E-2,5.9398085E-2,1.665224E-3,4.127664E-4,1.6839078E-3,3.588246E-4,2.1138197E-2,5.277728E-3,2.1049269E-2,4.714164E-2,3.689066E-4,6.110238E-6,-1.9335466E-4,-8.954146E-4,8.9119095E-4,1.073646E-2,2.257205E-3,4.9103345E-3,1.2617687E-3,-7.7214213E-3,3.8804385E-4,-2.5215774E-4,-4.3960525E-5,-2.9550977E-3,-6.3055096E-4,-1.4809243E-4,1.0090155E-2,3.60546E-2,-4.0275687E-3,4.795815E-3,4.7209084E-2,1.1207687E-2,3.370119E-2,-8.781207E-3,-3.840049E-4,-1.0219564E-3,5.404151E-4,1.3584372E-2,3.3991426E-2,1.2975137E-2,2.3025244E-3,1.0166858E-2,-1.7225166E-3,-3.4884138E-3,-6.1931815E-3,-2.4369925E-2,-9.0410776E-4,-1.5854487E-3,2.4997315E-4,3.4678078E-3],"categories":[],"categories_nodes":[],"categories_segments":[],"categories_sizes":[],"default_left":[0,0,0,0,0,0,0,0,1,0,0,0,0,0,0,0,0,0,0,1,0,0,0,0,0,0,0,0,0,0,0,0,0,0,0,0,0,0,0,1,0,0,0,0,1,0,0,0,0,0,0,1,0,0,0,0,0,0,0,0,0,0,0,0,0,0,0,0,0,0,0,0,0,0,0,0,0,0,0,0,0,0,0,0,0,0,0,0,0,0,0,0,0,0,0,0,0,0,0,0,0,0,0,0,0,0,0,0,0,0,0,0,0,0,0,0,0,0,0,0,0,0,0,0,0,0,0],"id":0,"left_children":[1,3,5,7,9,11,13,15,17,19,21,23,25,27,29,31,33,35,37,39,41,43,45,47,49,51,53,55,57,59,61,63,65,67,69,71,73,75,77,79,81,83,85,87,89,91,93,95,97,99,101,103,105,107,109,111,113,115,117,119,121,123,125,-1,-1,-1,-1,-1,-1,-1,-1,-1,-1,-1,-1,-1,-1,-1,-1,-1,-1,-1,-1,-1,-1,-1,-1,-1,-1,-1,-1,-1,-1,-1,-1,-1,-1,-1,-1,-1,-1,-1,-1,-1,-1,-1,-1,-1,-1,-1,-1,-1,-1,-1,-1,-1,-1,-1,-1,-1,-1,-1,-1,-1,-1,-1,-1],"loss_changes":[2.4447295E4,8.580418E3,8.771301E3,6.1036426E3,4.4359375E3,5.79988E3,4.352968E3,1.3470176E3,2.072461E3,1.1111536E4,6.4647764E3,5.7428735E3,1.6083145E4,3.8516213E3,2.1322754E3,1.0689758E3,1.0427793E3,1.4643145E3,9.518513E2,2.8011396E3,6.625E3,3.2515884E3,2.7511997E3,3.554664E3,3.8515498E3,3.366999E3,2.2781133E3,6.751448E2,2.587066E3,1.8644033E3,7.65874E2,5.2684094E2,5.776199E2,6.092346E2,8.2097925E2,9.357837E2,3.0963613E3,6.7526843E2,2.1564868E2,1.8737275E3,1.5096323E3,1.6141777E3,2.587585E3,1.4630374E3,8.699192E2,2.0290833E3,1.2064541E3,3.4610532E3,2.5500842E3,5.245858E3,3.8383174E3,1.896831E3,1.9927285E3,1.021916E3,1.6056268E3,6.922329E2,4.248412E2,1.1123018E3,2.7785123E2,1.0698193E3,9.9464624E2,7.355E2,2.4598624E2,0E0,0E0,0E0,0E0,0E0,0E0,0E0,0E0,0E0,0E0,0E0,0E0,0E0,0E0,0E0,0E0,0E0,0E0,0E0,0E0,0E0,0E0,0E0,0E0,0E0,0E0,0E0,0E0,0E0,0E0,0E0,0E0,0E0,0E0,0E0,0E0,0E0,0E0,0E0,0E0,0E0,0E0,0E0,0E0,0E0,0E0,0E0,0E0,0E0,0E0,0E0,0E0,0E0,0E0,0E0,0E0,0E0,0E0,0E0,0E0,0E0,0E0,0E0,0E0],"parents":[2147483647,0,0,1,1,2,2,3,3,4,4,5,5,6,6,7,7,8,8,9,9,10,10,11,11,12,12,13,13,14,14,15,15,16,16,17,17,18,18,19,19,20,20,21,21,22,22,23,23,24,24,25,25,26,26,27,27,28,28,29,29,30,30,31,31,32,32,33,33,34,34,35,35,36,36,37,37,38,38,39,39,40,40,41,41,42,42,43,43,44,44,45,45,46,46,47,47,48,48,49,49,50,50,51,51,52,52,53,53,54,54,55,55,56,56,57,57,58,58,59,59,60,60,61,61,62,62],"right_children":[2,4,6,8,10,12,14,16,18,20,22,24,26,28,30,32,34,36,38,40,42,44,46,48,50,52,54,56,58,60,62,64,66,68,70,72,74,76,78,80,82,84,86,88,90,92,94,96,98,100,102,104,106,108,110,112,114,116,118,120,122,124,126,-1,-1,-1,-1,-1,-1,-1,-1,-1,-1,-1,-1,-1,-1,-1,-1,-1,-1,-1,-1,-1,-1,-1,-1,-1,-1,-1,-1,-1,-1,-1,-1,-1,-1,-1,-1,-1,-1,-1,-1,-1,-1,-1,-1,-1,-1,-1,-1,-1,-1,-1,-1,-1,-1,-1,-1,-1,-1,-1,-1,-1,-1,-1,-1],"split_conditions":[-2.723935E-1,-2.4765513E0,1.2304567E0,2.229444E0,-2.862748E-1,3.3919257E2,2.7793294E-1,2.5418088E-1,3.381163E0,3.3919257E2,2.1346478E0,-1.0062675E0,2.0803294E0,3.3919257E2,-1.2552158E0,1.4465878E0,9.7726625E-1,1.22346014E-1,2.7498684E0,1.1719688E-1,2.2887478E0,1.2091223E0,1.9474907E0,2.7E1,7.20222E-2,-3.29767E-1,2.7813842E0,1.3822424E0,-1.299513E0,2.1645E0,2.0896041E0,-2.8098178E0,-2.8098178E0,3.4522617E-1,5.36E2,2.6939418E0,1.93E2,1.1277839E0,2.6240668E-1,-1.8435683E0,-7.92596E-3,-1.6600662E0,2.3871422E0,-3.249683E-2,-1.0592113E-2,3.381163E0,-8.155545E-2,1.3074907E0,-5.961795E-3,2.6580474E0,-2.05821E-1,2.2887478E0,6.200832E-1,7.7545375E-1,1.1990402E-1,8.87E2,2.460854E0,-1.399143E0,1.7883327E0,8.76E2,1.7768415E0,2.6631296E-1,2.2887478E0,3.1834773E-3,7.461042E-4,9.464387E-3,3.145819E-3,1.8590917E-3,4.3736035E-3,9.236407E-3,3.5140333E-3,4.3129777E-3,2.9048946E-2,1.7310185E-2,5.158495E-3,2.3291616E-3,3.3505674E-2,1.1054401E-2,5.9398085E-2,1.665224E-3,4.127664E-4,1.6839078E-3,3.588246E-4,2.1138197E-2,5.277728E-3,2.1049269E-2,4.714164E-2,3.689066E-4,6.110238E-6,-1.9335466E-4,-8.954146E-4,8.9119095E-4,1.073646E-2,2.257205E-3,4.9103345E-3,1.2617687E-3,-7.7214213E-3,3.8804385E-4,-2.5215774E-4,-4.3960525E-5,-2.9550977E-3,-6.3055096E-4,-1.4809243E-4,1.0090155E-2,3.60546E-2,-4.0275687E-3,4.795815E-3,4.7209084E-2,1.1207687E-2,3.370119E-2,-8.781207E-3,-3.840049E-4,-1.0219564E-3,5.404151E-4,1.3584372E-2,3.3991426E-2,1.2975137E-2,2.3025244E-3,1.0166858E-2,-1.7225166E-3,-3.4884138E-3,-6.1931815E-3,-2.4369925E-2,-9.0410776E-4,-1.5854487E-3,2.4997315E-4,3.4678078E-3],"split_indices":[7,7,22,78,10,78,10,77,20,78,53,59,20,78,11,75,59,59,38,18,53,22,44,1,10,10,52,32,45,36,62,4,4,34,1,25,1,27,76,11,17,10,37,51,34,20,41,41,51,75,16,53,37,41,34,1,34,36,53,1,35,26,53,0,0,0,0,0,0,0,0,0,0,0,0,0,0,0,0,0,0,0,0,0,0,0,0,0,0,0,0,0,0,0,0,0,0,0,0,0,0,0,0,0,0,0,0,0,0,0,0,0,0,0,0,0,0,0,0,0,0,0,0,0,0,0,0],"split_type":[0,0,0,0,0,0,0,0,0,0,0,0,0,0,0,0,0,0,0,0,0,0,0,0,0,0,0,0,0,0,0,0,0,0,0,0,0,0,0,0,0,0,0,0,0,0,0,0,0,0,0,0,0,0,0,0,0,0,0,0,0,0,0,0,0,0,0,0,0,0,0,0,0,0,0,0,0,0,0,0,0,0,0,0,0,0,0,0,0,0,0,0,0,0,0,0,0,0,0,0,0,0,0,0,0,0,0,0,0,0,0,0,0,0,0,0,0,0,0,0,0,0,0,0,0,0,0],"sum_hessian":[4.5619172E7,1.8182416E7,2.7436754E7,3.5634562E5,1.782607E7,2.4687712E7,2.7490435E6,3.2485878E5,3.1486828E4,8.547746E6,9.278324E6,2.4666556E7,2.1155312E4,1.4753929E6,1.2736506E6,2.1887872E5,1.0598007E5,3.085989E4,6.269378E2,8.537576E6,1.0169997E4,8.739366E6,5.389583E5,4.57156E6,2.0094996E7,1.8799143E4,2.35617E3,1.4701645E6,5.2284214E3,2.2614058E5,1.04751E6,1.9856875E5,2.0309965E4,8.951302E4,1.6467049E4,1.7136527E4,1.3723363E4,4.4970007E2,1.7723773E2,7.876624E6,6.6095225E5,7.6224526E3,2.5475452E3,7.6040985E6,1.1352671E6,4.1348438E5,1.2547391E5,5.80556E5,3.991004E6,9.397756E6,1.069724E7,2.5485876E3,1.6250554E4,1.7845061E3,5.716638E2,1.384823E6,8.534139E4,1.6085051E3,3.6199163E3,2.24223E5,1.9175885E3,1.0144026E6,3.3107414E4,1.5248639E4,1.8332012E5,2.6390989E3,1.7670867E4,6.9929086E4,1.958394E4,6.7459062E3,9.721143E3,1.6892834E4,2.4369333E2,5.684013E3,8.03935E3,1.9257277E2,2.571273E2,1.7767384E1,1.5947035E2,1.9443445E5,7.6821895E6,4.682936E5,1.9265869E5,1.2093279E3,6.4131245E3,1.5539426E3,9.936024E2,2.7839062E6,4.8201925E6,5.036123E5,6.316548E5,4.1013653E5,3.3478538E3,8.556858E4,3.9905332E4,5.7366794E5,6.8880884E3,2.1949642E6,1.7960396E6,9.298436E6,9.931952E4,6.1250165E6,4.5722235E6,1.9722281E3,5.7635944E2,8.048404E3,8.20215E3,1.6467404E3,1.3776569E2,3.254732E2,2.4619061E2,1.0171863E6,3.6763675E5,8.494588E4,3.955109E2,8.1207874E2,7.964264E2,2.644362E3,9.7555414E2,1.3095728E5,9.326571E4,9.98807E2,9.187815E2,4.6158147E5,5.528211E5,2.8769191E4,4.3382236E3],"tree_param":{"num_deleted":"0","num_feature":"82","num_nodes":"127","size_leaf_vector":"1"}},{"base_weights":[-1.7140264E-4,3.0247683E-2,-2.5394522E-2,2.919708E-2,5.61943E-1,-3.1170808E-3,-4.6129122E-2,5.242184E-2,1.1030539E-2,1.930066E0,1.0650838E-1,-4.346281E-3,6.415616E-1,-5.0489217E-2,1.2004768E-1,9.1135055E-2,4.1266978E-2,2.9207172E-2,-5.828755E-3,1.573808E0,3.3325028E0,4.804233E-1,-2.610522E-1,2.32432E-3,-5.738177E-2,3.930937E-1,3.0523021E0,-4.365664E-2,-1.1624857E-1,3.2302985E-1,8.8368595E-2,7.587959E-2,1.5688956E-1,5.3067103E-2,1.7603146E-2,2.0328984E-2,7.8315176E-2,-1.22296445E-1,-3.8551206E-3,1.8788059E0,2.4825647E-1,2.0735465E-1,3.5321352E0,4.2995927E-1,2.9546933E0,-3.0984345E-1,2.2154293E0,2.5747119E-2,-1.1285567E-2,-6.129194E-2,1.7077067E-1,9.743806E-1,1.1071084E-1,2.272499E0,4.0174537E0,-4.997815E-2,5.984031E-4,-1.10871345E-1,-7.455517E-1,3.0032545E-1,1.5385928E0,1.0106615E-1,-4.2780253E-1,2.3689326E-3,8.553316E-4,1.893914E-3,6.930435E-3,5.540984E-4,1.104206E-3,1.9256484E-4,2.3608964E-3,2.9529232E-4,-4.1171553E-4,7.852203E-4,1.6103799E-3,-2.1474813E-3,3.8184833E-5,-1.1164038E-4,4.804458E-4,2.023422E-2,3.7659027E-2,-1.0657433E-3,8.749179E-3,3.882742E-2,-1.4005189E-2,5.172705E-2,2.8169265E-2,3.0026238E-3,1.0427998E-2,5.050782E-2,1.2308793E-2,-3.4532298E-3,-1.6405322E-2,3.661191E-2,-5.7978844E-3,3.0054516E-4,4.183615E-3,2.918757E-4,-2.4129193E-4,-3.1412762E-4,-1.0806246E-3,1.5089541E-3,5.120931E-3,3.0716006E-2,9.838401E-3,2.221082E-3,-6.9089304E-3,1.395351E-3,3.2351583E-2,5.433266E-2,2.9150466E-2,-4.7883773E-4,-1.1599244E-3,-4.4342647E-5,1.9361862E-3,-2.0900955E-3,-1.1248821E-3,-1.1938205E-2,-5.1766867E-3,3.3243534E-3,8.645195E-3,2.5977034E-2,-6.4604767E-3,2.117876E-3,1.8841347E-4,-1.4983816E-3,-3.2418646E-2],"categories":[],"categories_nodes":[],"categories_segments":[],"categories_sizes":[],"default_left":[0,0,0,0,0,0,0,0,0,0,0,0,0,0,0,0,0,0,0,0,0,1,0,0,0,0,1,0,0,1,0,1,0,0,0,0,0,0,0,0,1,0,0,0,0,0,0,0,0,0,0,0,0,0,0,0,0,0,0,0,0,0,1,0,0,0,0,0,0,0,0,0,0,0,0,0,0,0,0,0,0,0,0,0,0,0,0,0,0,0,0,0,0,0,0,0,0,0,0,0,0,0,0,0,0,0,0,0,0,0,0,0,0,0,0,0,0,0,0,0,0,0,0,0,0,0,0],"id":1,"left_children":[1,3,5,7,9,11,13,15,17,19,21,23,25,27,29,31,33,35,37,39,41,43,45,47,49,51,53,55,57,59,61,63,65,67,69,71,73,75,77,79,81,83,85,87,89,91,93,95,97,99,101,103,105,107,109,111,113,115,117,119,121,123,125,-1,-1,-1,-1,-1,-1,-1,-1,-1,-1,-1,-1,-1,-1,-1,-1,-1,-1,-1,-1,-1,-1,-1,-1,-1,-1,-1,-1,-1,-1,-1,-1,-1,-1,-1,-1,-1,-1,-1,-1,-1,-1,-1,-1,-1,-1,-1,-1,-1,-1,-1,-1,-1,-1,-1,-1,-1,-1,-1,-1,-1,-1,-1,-1],"loss_changes":[3.5019992E4,1.1557463E4,1.152587E4,8.712271E3,2.542243E4,9.531945E3,9.36385E3,3.9137363E3,3.5506174E3,5.076082E3,4.2079307E3,4.247407E3,1.37078545E4,5.658217E3,2.124563E3,2.0335273E3,1.9646172E3,2.4308066E3,1.3817113E3,3.2858105E3,1.2837285E3,1.8911133E3,1.8673129E3,3.3996423E3,1.1966445E3,3.4064907E3,1.5833008E3,3.1914902E3,4.010669E3,1.2295225E3,1.8733599E3,1.4753203E3,9.8710547E2,1.4753301E3,9.2211084E2,7.7758887E2,6.757739E2,6.0431396E2,1.2421599E3,1.9884453E3,2.2656686E2,4.903308E2,1.4136328E3,1.133169E3,6.1973145E2,5.363972E2,5.555205E2,2.2739404E3,1.8275205E3,1.1734326E3,2.7149518E2,1.9163447E3,6.0398346E2,7.575127E2,4.4943164E2,5.030041E3,8.9871783E2,1.3960703E3,6.774238E2,6.1582324E2,8.798579E2,1.6098928E3,4.5458047E3,0E0,0E0,0E0,0E0,0E0,0E0,0E0,0E0,0E0,0E0,0E0,0E0,0E0,0E0,0E0,0E0,0E0,0E0,0E0,0E0,0E0,0E0,0E0,0E0,0E0,0E0,0E0,0E0,0E0,0E0,0E0,0E0,0E0,0E0,0E0,0E0,0E0,0E0,0E0,0E0,0E0,0E0,0E0,0E0,0E0,0E0,0E0,0E0,0E0,0E0,0E0,0E0,0E0,0E0,0E0,0E0,0E0,0E0,0E0,0E0,0E0,0E0,0E0,0E0],"parents":[2147483647,0,0,1,1,2,2,3,3,4,4,5,5,6,6,7,7,8,8,9,9,10,10,11,11,12,12,13,13,14,14,15,15,16,16,17,17,18,18,19,19,20,20,21,21,22,22,23,23,24,24,25,25,26,26,27,27,28,28,29,29,30,30,31,31,32,32,33,33,34,34,35,35,36,36,37,37,38,38,39,39,40,40,41,41,42,42,43,43,44,44,45,45,46,46,47,47,48,48,49,49,50,50,51,51,52,52,53,53,54,54,55,55,56,56,57,57,58,58,59,59,60,60,61,61,62,62],"right_children":[2,4,6,8,10,12,14,16,18,20,22,24,26,28,30,32,34,36,38,40,42,44,46,48,50,52,54,56,58,60,62,64,66,68,70,72,74,76,78,80,82,84,86,88,90,92,94,96,98,100,102,104,106,108,110,112,114,116,118,120,122,124,126,-1,-1,-1,-1,-1,-1,-1,-1,-1,-1,-1,-1,-1,-1,-1,-1,-1,-1,-1,-1,-1,-1,-1,-1,-1,-1,-1,-1,-1,-1,-1,-1,-1,-1,-1,-1,-1,-1,-1,-1,-1,-1,-1,-1,-1,-1,-1,-1,-1,-1,-1,-1,-1,-1,-1,-1,-1,-1,-1,-1,-1,-1,-1,-1],"split_conditions":[-7.4589066E-2,3.3919257E2,6.9008945E-3,-3.394074E-1,-2.394358E0,3.3919257E2,1.4708829E2,-1.2018459E0,-1.5613308E-2,1.7509571E0,6.399012E-1,1.2304567E0,2.5421722E0,1.2971398E0,-8.8229245E-1,-2.6597163E-1,2.1243298E-1,-1.9118455E-1,-1.9477452E0,4.649045E-4,8.84E2,2.545461E0,3.381163E0,-2.945646E-1,2.7439039E0,-2.394358E0,3.3738217E0,8.2826275E-1,3.3919257E2,9.683194E-1,3.0525572E0,-1.7050797E0,2.6207738E0,-3.8239846E-1,1.4708829E2,1.5467653E0,7.6160556E-1,1.0345526E0,1.8302324E-1,2.4550037E0,-3.699156E-1,-1.4663476E0,1.4098667E-2,-3.318951E-1,7.791914E-1,2.54224E0,3.7729986E-2,3.2892478E0,-9.4521034E-1,3.914371E-2,2.642311E0,-2.370988E0,3.787774E0,-1.910554E0,-3.5739794E-1,7.6151353E-1,3.2892478E0,-8.04662E-1,-3.1655014E-3,1.7663507E0,4.1387638E-1,-1.0222311E0,1.6252662E0,2.3689326E-3,8.553316E-4,1.893914E-3,6.930435E-3,5.540984E-4,1.104206E-3,1.9256484E-4,2.3608964E-3,2.9529232E-4,-4.1171553E-4,7.852203E-4,1.6103799E-3,-2.1474813E-3,3.8184833E-5,-1.1164038E-4,4.804458E-4,2.023422E-2,3.7659027E-2,-1.0657433E-3,8.749179E-3,3.882742E-2,-1.4005189E-2,5.172705E-2,2.8169265E-2,3.0026238E-3,1.0427998E-2,5.050782E-2,1.2308793E-2,-3.4532298E-3,-1.6405322E-2,3.661191E-2,-5.7978844E-3,3.0054516E-4,4.183615E-3,2.918757E-4,-2.4129193E-4,-3.1412762E-4,-1.0806246E-3,1.5089541E-3,5.120931E-3,3.0716006E-2,9.838401E-3,2.221082E-3,-6.9089304E-3,1.395351E-3,3.2351583E-2,5.433266E-2,2.9150466E-2,-4.7883773E-4,-1.1599244E-3,-4.4342647E-5,1.9361862E-3,-2.0900955E-3,-1.1248821E-3,-1.1938205E-2,-5.1766867E-3,3.3243534E-3,8.645195E-3,2.5977034E-2,-6.4604767E-3,2.117876E-3,1.8841347E-4,-1.4983816E-3,-3.2418646E-2],"split_indices":[9,78,39,7,39,78,18,9,39,20,39,22,20,22,7,18,39,33,50,62,0,18,20,7,62,39,18,62,78,48,4,11,63,18,18,22,43,25,18,42,11,7,62,19,26,7,62,63,59,8,50,36,8,23,33,9,63,11,62,71,32,59,11,0,0,0,0,0,0,0,0,0,0,0,0,0,0,0,0,0,0,0,0,0,0,0,0,0,0,0,0,0,0,0,0,0,0,0,0,0,0,0,0,0,0,0,0,0,0,0,0,0,0,0,0,0,0,0,0,0,0,0,0,0,0,0,0],"split_type":[0,0,0,0,0,0,0,0,0,0,0,0,0,0,0,0,0,0,0,0,0,0,0,0,0,0,0,0,0,0,0,0,0,0,0,0,0,0,0,0,0,0,0,0,0,0,0,0,0,0,0,0,0,0,0,0,0,0,0,0,0,0,0,0,0,0,0,0,0,0,0,0,0,0,0,0,0,0,0,0,0,0,0,0,0,0,0,0,0,0,0,0,0,0,0,0,0,0,0,0,0,0,0,0,0,0,0,0,0,0,0,0,0,0,0,0,0,0,0,0,0,0,0,0,0,0,0],"sum_hessian":[4.564267E7,2.0690236E7,2.4952434E7,2.0649438E7,4.0799074E4,1.20287E7,1.2923734E7,9.062983E6,1.1586455E7,1.018728E4,3.0611793E4,1.2005812E7,2.2888371E4,1.2593317E7,3.304166E5,2.0272689E6,7.035714E6,5.5754065E6,6.0110485E6,8.1284185E3,2.0588616E3,1.5174469E4,1.5437325E4,1.0664475E7,1.3413365E6,2.075273E4,2.1356404E3,1.1408001E7,1.1853159E6,4.4602016E4,2.8581456E5,1.6455081E6,3.8176072E5,4.6946745E6,2.3410395E6,4.721769E6,8.5363756E5,1.001606E5,5.910888E6,6.606962E3,1.5214567E3,1.2399859E2,1.9348629E3,1.4874408E4,3.000607E2,1.5141489E4,2.9583527E2,3.919305E6,6.7451705E6,1.318738E6,2.25985E4,6.782884E3,1.3969848E4,1.186469E3,9.4917145E2,9.98213E6,1.4258714E6,1.1752769E6,1.0038953E4,4.378771E4,8.1430493E2,2.7895488E5,6.8596846E3,1.0952626E5,1.5359819E6,3.7548153E5,6.279193E3,3.7171252E6,9.7754906E5,2.3094798E6,3.155964E4,4.460328E6,2.6144131E5,6.451373E5,2.0850023E5,7.236493E4,2.779568E4,5.281296E6,6.295917E5,5.3086426E3,1.2983193E3,8.7249335E2,6.4896326E2,3.7863285E1,8.61353E1,1.3374497E3,5.9741327E2,1.0040192E4,4.834216E3,1.9385272E2,1.0620797E2,1.4618031E4,5.234584E2,2.3501088E2,6.0824394E1,3.895217E6,2.4087896E4,1.2536439E6,5.4915265E6,5.3050575E5,7.8823225E5,1.8580936E4,4.017565E3,7.884983E2,5.9943853E3,1.2707811E4,1.262037E3,1.4301309E2,1.0434559E3,8.0554315E2,1.436283E2,7.7707105E6,2.2114195E6,1.3885206E6,3.7350684E4,3.3130766E5,8.4396925E5,6.2580527E3,3.780901E3,4.0008793E4,3.7789165E3,6.488878E2,1.6541711E2,1.568661E5,1.2208879E5,5.99887E3,8.608148E2],"tree_param":{"num_deleted":"0","num_feature":"82","num_nodes":"127","size_leaf_vector":"1"}},{"base_weights":[-1.0934858E-4,2.0939577E-2,-1.6759481E-2,1.977422E-2,5.2656436E-1,-2.4147697E-2,7.723609E-2,2.1609599E-2,-1.442284E-1,1.6871798E0,2.3496187E-1,-1.6894024E-2,-7.744134E-2,5.3880338E-2,1.724052E-1,1.6209057E-2,7.0995964E-2,-6.469463E-1,-1.3360202E-1,2.6758027E0,9.763326E-1,1.5679733E0,2.0215848E-1,1.3931104E-3,-2.620386E-2,-7.650851E-2,-8.4425014E-1,1.2288248E-1,3.471011E-2,1.5695016E-1,1.5237204E0,2.552094E-2,3.208711E-4,6.963001E-2,2.580449E0,-7.6632136E-1,5.5218774E-1,-9.015406E-2,-2.179176E-1,1.7304239E0,3.2285104E0,1.9965264E0,6.3709056E-1,2.4183502E0,1.0037065E0,1.04907826E-1,4.521766E-1,3.0679539E-2,-1.2282634E-2,-3.6356732E-2,-6.097436E-3,-4.886701E-2,-1.0046974E-1,-1.34142E0,-6.423292E-2,1.2748845E-1,-5.934763E-1,3.3657894E-2,1.5547414E0,2.948551E-2,2.1066663E-1,2.4726837E0,1.19356245E-1,-1.6547975E-3,3.320289E-4,1.566073E-4,-2.6075265E-4,1.2285017E-3,3.0266918E-4,4.6530765E-2,1.6611582E-2,-8.624646E-3,-2.5920035E-2,1.6907528E-3,2.6817098E-2,-9.435765E-4,-3.675841E-3,-6.2043546E-3,-2.1758534E-3,2.582342E-2,1.112874E-3,4.3265115E-2,2.3223376E-2,1.9172493E-2,4.104072E-2,4.589773E-3,1.4984858E-2,1.6205734E-2,3.82498E-2,2.6023523E-3,1.8610187E-2,6.7293094E-3,7.857761E-4,1.0521144E-2,3.7254195E-3,6.8826636E-4,1.8474444E-4,-4.709276E-5,-3.5100395E-4,-2.4094287E-4,-7.8689086E-4,-1.1379522E-4,1.325455E-3,-6.8622077E-4,1.0339862E-3,-7.430772E-4,-1.687947E-3,-1.0215663E-2,-2.9842937E-2,2.8496997E-3,-3.5457932E-3,1.0282927E-3,2.2655353E-3,-2.1136643E-3,-2.0667126E-2,2.1723722E-4,1.1985647E-3,3.730427E-2,-5.308074E-3,5.5901456E-4,-1.4746347E-2,8.183014E-3,2.4265766E-3,3.4519754E-2,-1.589934E-2,6.527492E-3,-7.602679E-3],"categories":[],"categories_nodes":[],"categories_segments":[],"categories_sizes":[],"default_left":[0,1,0,0,0,0,0,0,0,1,0,0,0,0,1,0,0,0,0,0,0,1,0,0,0,0,0,0,0,0,0,0,0,0,1,0,0,0,0,0,0,0,0,0,0,0,0,0,0,0,0,0,1,0,0,0,0,0,0,0,0,0,0,0,0,0,0,0,0,0,0,0,0,0,0,0,0,0,0,0,0,0,0,0,0,0,0,0,0,0,0,0,0,0,0,0,0,0,0,0,0,0,0,0,0,0,0,0,0,0,0,0,0,0,0,0,0,0,0,0,0,0,0,0,0,0,0],"id":2,"left_children":[1,3,5,7,9,11,13,15,17,19,21,23,25,27,29,31,33,35,37,39,41,43,45,47,49,51,53,55,57,59,61,63,65,67,69,71,73,75,77,79,81,83,85,87,89,91,93,95,97,99,101,103,105,107,109,111,113,115,117,119,121,123,125,-1,-1,-1,-1,-1,-1,-1,-1,-1,-1,-1,-1,-1,-1,-1,-1,-1,-1,-1,-1,-1,-1,-1,-1,-1,-1,-1,-1,-1,-1,-1,-1,-1,-1,-1,-1,-1,-1,-1,-1,-1,-1,-1,-1,-1,-1,-1,-1,-1,-1,-1,-1,-1,-1,-1,-1,-1,-1,-1,-1,-1,-1,-1,-1],"loss_changes":[1.5993717E4,1.1876068E4,1.7694902E4,6.052922E3,1.5684078E4,9.132146E3,4.127207E3,5.303948E3,1.1885483E3,6.531994E3,1.6187146E3,3.540046E3,2.0241035E3,1.9721655E3,7.640669E3,2.6521465E3,6.7185674E3,6.605233E2,7.983257E2,2.016834E3,1.8712124E3,4.1950684E2,8.7893884E2,2.8094363E3,2.8127295E3,1.8721426E3,1.3329482E3,1.0697075E3,1.8658171E3,2.4768975E3,5.512206E3,1.4723994E3,1.6855638E3,2.4903623E3,1.482977E3,4.383291E2,2.7467407E2,4.4255627E2,9.198396E2,7.5447217E2,6.7891797E2,7.942456E2,6.117451E2,2.3508765E2,2.0244116E2,4.752068E2,6.057981E2,8.5636914E2,6.363844E2,4.117454E3,1.5095529E3,9.615071E2,2.10438E3,1.1386001E3,8.47853E1,7.7298047E2,9.2202686E2,1.1765559E3,2.2456738E3,1.9150271E3,2.0186904E3,2.471081E3,4.8242285E2,0E0,0E0,0E0,0E0,0E0,0E0,0E0,0E0,0E0,0E0,0E0,0E0,0E0,0E0,0E0,0E0,0E0,0E0,0E0,0E0,0E0,0E0,0E0,0E0,0E0,0E0,0E0,0E0,0E0,0E0,0E0,0E0,0E0,0E0,0E0,0E0,0E0,0E0,0E0,0E0,0E0,0E0,0E0,0E0,0E0,0E0,0E0,0E0,0E0,0E0,0E0,0E0,0E0,0E0,0E0,0E0,0E0,0E0,0E0,0E0,0E0,0E0,0E0,0E0],"parents":[2147483647,0,0,1,1,2,2,3,3,4,4,5,5,6,6,7,7,8,8,9,9,10,10,11,11,12,12,13,13,14,14,15,15,16,16,17,17,18,18,19,19,20,20,21,21,22,22,23,23,24,24,25,25,26,26,27,27,28,28,29,29,30,30,31,31,32,32,33,33,34,34,35,35,36,36,37,37,38,38,39,39,40,40,41,41,42,42,43,43,44,44,45,45,46,46,47,47,48,48,49,49,50,50,51,51,52,52,53,53,54,54,55,55,56,56,57,57,58,58,59,59,60,60,61,61,62,62],"right_children":[2,4,6,8,10,12,14,16,18,20,22,24,26,28,30,32,34,36,38,40,42,44,46,48,50,52,54,56,58,60,62,64,66,68,70,72,74,76,78,80,82,84,86,88,90,92,94,96,98,100,102,104,106,108,110,112,114,116,118,120,122,124,126,-1,-1,-1,-1,-1,-1,-1,-1,-1,-1,-1,-1,-1,-1,-1,-1,-1,-1,-1,-1,-1,-1,-1,-1,-1,-1,-1,-1,-1,-1,-1,-1,-1,-1,-1,-1,-1,-1,-1,-1,-1,-1,-1,-1,-1,-1,-1,-1,-1,-1,-1,-1,-1,-1,-1,-1,-1,-1,-1,-1,-1,-1,-1,-1],"split_conditions":[-1.2692289E-1,2.5713882E0,2.5303593E0,2.6757436E0,-3.5154852E-1,1.2304567E0,2.24036E0,1.7917886E-2,4.6E1,-1.7475262E0,-3.6132702E-1,-3.249683E-2,2.3068006E0,-2.5538662E-1,3.381163E0,8.042401E-3,4.1625525E2,4.544736E0,6.65E2,2.5303593E0,-1.461175E0,-1.7475262E0,3.536708E-1,-4.6131295E-1,-1.7965582E-1,8.16E2,-2.1923526E-1,2.4845757E0,2.7121686E2,-6.0048897E-2,9.626796E-2,-3.6471133E0,-7.635533E-2,-1.4214294E-1,-2.2277458E0,3.3064587E0,4.2384377E-1,3.3064587E0,-3.6471133E0,3.3453575E-1,1.9151331E0,6.1592543E-1,1.5515313E0,3.2253486E-1,6.832628E-1,-1.3188075E0,-1.299513E0,-2.2497386E-1,3.7801248E-1,3.9089885E-1,2.24036E0,2.24036E0,-1.0592113E-2,3.787774E0,1.6E1,3.8146555E-1,5.8808595E-1,1.4833688E0,-3.9654276E-1,3.0525572E0,-1.3698841E0,1.2329715E0,1.07714474E-1,-1.6547975E-3,3.320289E-4,1.566073E-4,-2.6075265E-4,1.2285017E-3,3.0266918E-4,4.6530765E-2,1.6611582E-2,-8.624646E-3,-2.5920035E-2,1.6907528E-3,2.6817098E-2,-9.435765E-4,-3.675841E-3,-6.2043546E-3,-2.1758534E-3,2.582342E-2,1.112874E-3,4.3265115E-2,2.3223376E-2,1.9172493E-2,4.104072E-2,4.589773E-3,1.4984858E-2,1.6205734E-2,3.82498E-2,2.6023523E-3,1.8610187E-2,6.7293094E-3,7.857761E-4,1.0521144E-2,3.7254195E-3,6.8826636E-4,1.8474444E-4,-4.709276E-5,-3.5100395E-4,-2.4094287E-4,-7.8689086E-4,-1.1379522E-4,1.325455E-3,-6.8622077E-4,1.0339862E-3,-7.430772E-4,-1.687947E-3,-1.0215663E-2,-2.9842937E-2,2.8496997E-3,-3.5457932E-3,1.0282927E-3,2.2655353E-3,-2.1136643E-3,-2.0667126E-2,2.1723722E-4,1.1985647E-3,3.730427E-2,-5.308074E-3,5.5901456E-4,-1.4746347E-2,8.183014E-3,2.4265766E-3,3.4519754E-2,-1.589934E-2,6.527492E-3,-7.602679E-3],"split_indices":[10,61,53,73,16,22,61,20,1,45,17,51,36,52,20,51,80,27,1,53,36,45,77,59,16,1,74,41,76,8,33,61,70,72,76,41,34,41,61,33,52,20,27,35,27,64,45,52,22,10,61,61,34,8,2,10,64,10,73,4,36,70,34,0,0,0,0,0,0,0,0,0,0,0,0,0,0,0,0,0,0,0,0,0,0,0,0,0,0,0,0,0,0,0,0,0,0,0,0,0,0,0,0,0,0,0,0,0,0,0,0,0,0,0,0,0,0,0,0,0,0,0,0,0,0,0,0],"split_type":[0,0,0,0,0,0,0,0,0,0,0,0,0,0,0,0,0,0,0,0,0,0,0,0,0,0,0,0,0,0,0,0,0,0,0,0,0,0,0,0,0,0,0,0,0,0,0,0,0,0,0,0,0,0,0,0,0,0,0,0,0,0,0,0,0,0,0,0,0,0,0,0,0,0,0,0,0,0,0,0,0,0,0,0,0,0,0,0,0,0,0,0,0,0,0,0,0,0,0,0,0,0,0,0,0,0,0,0,0,0,0,0,0,0,0,0,0,0,0,0,0,0,0,0,0,0,0],"sum_hessian":[4.5635384E7,2.015528E7,2.5480104E7,2.0108936E7,4.634366E4,2.3623276E7,1.8568272E6,1.9886388E7,2.2254842E5,9.302961E3,3.70407E4,2.0793172E7,2.8301045E6,1.4909371E6,3.658901E5,1.792612E7,1.9602671E6,4.6031353E3,2.179453E5,3.8879194E3,5.4150415E3,8.8641095E2,3.6154285E4,7.0145715E6,1.3778601E7,2.826669E6,3.4354753E3,3.241514E5,1.1667858E6,3.6175588E5,4.134224E3,1.1302088E7,6.624032E6,1.9592036E6,1.0635331E3,4.187382E3,4.157538E2,1.4383439E5,7.41109E4,1.4387346E3,2.4491848E3,1.3478262E3,4.0672153E3,3.4983997E2,5.36571E2,2.6032674E4,1.0121613E4,2.2328842E6,4.781687E6,9.155474E6,4.6231265E6,1.312543E6,1.5141259E6,2.096833E3,1.3386422E3,3.2208294E5,2.0684397E3,1.1659816E6,8.042079E2,1.0725512E5,2.5450075E5,2.4658132E3,1.668411E3,5.952767E4,1.124256E7,4.202647E6,2.421385E6,1.2160841E6,7.431195E5,5.623732E2,5.0115982E2,3.9418528E3,2.4552882E2,3.3105048E2,8.470334E1,1.3371186E5,1.0122534E4,1.0480136E4,6.3630766E4,1.2040322E3,2.3470238E2,2.1295244E3,3.1966043E2,9.8354877E2,3.6427744E2,2.7254553E3,1.3417601E3,1.2653908E2,2.2330089E2,2.0147433E2,3.3509662E2,2.3447998E3,2.3687873E4,2.9334019E3,7.1882114E3,8.9496156E5,1.3379228E6,3.0876575E6,1.6940295E6,5.5138705E6,3.6416038E6,4.504384E6,1.1874269E5,1.2587556E6,5.3787375E4,6.76293E5,8.3783294E5,1.385882E3,7.1095105E2,5.724796E2,7.661626E2,1.716051E5,1.5047786E5,1.4727911E3,5.9564844E2,9.2021075E5,2.4577081E5,4.691148E2,3.3509305E2,1.0594394E5,1.3111771E3,1.0068289E4,2.4443245E5,2.3020164E3,1.637968E2,1.075868E3,5.9254297E2],"tree_param":{"num_deleted":"0","num_feature":"82","num_nodes":"127","size_leaf_vector":"1"}},{"base_weights":[-7.6091914E-5,2.9343817E-2,-2.5246998E-2,2.833105E-2,5.4624265E-1,-2.2763677E-3,-4.5634612E-2,5.0368033E-2,1.0311883E-2,1.6115628E0,4.1394036E-2,-3.512811E-3,6.32537E-1,9.978203E-2,-5.104981E-2,4.7711484E-2,2.0653054E-1,2.6510632E-2,-7.4512004E-3,1.271786E0,3.0727215E0,-1.49209425E-2,2.088276E0,3.7551178E-3,-4.855316E-2,3.8021997E-1,2.9347947E0,1.0783154E-1,-5.905044E-1,-4.292488E-2,-1.0121635E-1,7.0234805E-2,3.302051E-2,1.7777687E-1,5.1603734E-1,1.7240306E-2,7.0424736E-2,-4.6398523E-3,-1.2614688E-1,1.580478E0,5.464299E-2,3.3141575E0,-9.442452E-3,3.3789232E-1,-2.9539543E-1,1.111974E0,3.2005184E0,2.720843E-2,-9.862815E-3,-5.4434273E-2,1.0524502E-1,1.0068854E0,7.710363E-2,2.0479968E0,3.8895435E0,8.671313E-2,2.6474327E-1,-2.0320995E-1,-1.7310663E0,-3.1222958E-2,-6.578601E-2,-9.723213E-2,-7.017737E-1,7.477119E-4,1.5398092E-3,6.343484E-4,1.8290088E-4,5.0522503E-3,1.978874E-3,1.603541E-2,5.2940166E-3,-3.0500316E-3,2.2815094E-4,1.3586495E-3,6.304405E-4,-1.3178456E-4,5.351229E-4,-2.299339E-3,-5.1278376E-4,3.7615955E-2,1.6770085E-2,2.1879268E-3,-1.1707802E-2,4.8411205E-2,2.3128541E-2,-1.4247081E-2,3.1202987E-2,2.2244023E-3,9.317093E-3,-2.6661933E-3,-1.0919749E-2,1.7622707E-2,-3.0798925E-2,4.4139866E-2,-7.0924493E-3,3.1943538E-4,4.0672855E-3,2.5547785E-4,-2.3523078E-4,-1.0766337E-3,-3.530321E-4,8.425676E-4,4.4257664E-3,2.5872486E-2,8.502237E-3,3.2453332E-3,-2.7752009E-3,-7.5617936E-3,2.989288E-2,5.1097397E-2,-2.968613E-2,1.9862729E-3,5.3005345E-4,6.709962E-3,2.4417746E-3,-4.8697934E-2,-2.1947727E-3,-9.4332965E-3,-2.9391339E-2,-8.2900566E-5,-5.413214E-4,-6.9018005E-4,-1.3609059E-3,-8.517695E-4,-1.642293E-3,-6.1554634E-3,-1.3819138E-2],"categories":[],"categories_nodes":[],"categories_segments":[],"categories_sizes":[],"default_left":[0,0,0,0,0,0,0,0,0,0,0,0,0,0,1,0,1,1,0,0,0,0,1,0,1,0,1,0,0,0,0,0,0,0,0,0,0,0,0,0,0,0,0,0,0,0,0,0,0,0,0,0,0,0,0,0,0,0,0,0,0,0,0,0,0,0,0,0,0,0,0,0,0,0,0,0,0,0,0,0,0,0,0,0,0,0,0,0,0,0,0,0,0,0,0,0,0,0,0,0,0,0,0,0,0,0,0,0,0,0,0,0,0,0,0,0,0,0,0,0,0,0,0,0,0,0,0],"id":3,"left_children":[1,3,5,7,9,11,13,15,17,19,21,23,25,27,29,31,33,35,37,39,41,43,45,47,49,51,53,55,57,59,61,63,65,67,69,71,73,75,77,79,81,83,85,87,89,91,93,95,97,99,101,103,105,107,109,111,113,115,117,119,121,123,125,-1,-1,-1,-1,-1,-1,-1,-1,-1,-1,-1,-1,-1,-1,-1,-1,-1,-1,-1,-1,-1,-1,-1,-1,-1,-1,-1,-1,-1,-1,-1,-1,-1,-1,-1,-1,-1,-1,-1,-1,-1,-1,-1,-1,-1,-1,-1,-1,-1,-1,-1,-1,-1,-1,-1,-1,-1,-1,-1,-1,-1,-1,-1,-1],"loss_changes":[3.3786777E4,1.1012777E4,1.1515095E4,8.337236E3,2.2124309E4,9.074864E3,1.0257889E4,3.9182285E3,3.3236802E3,6.55516E3,3.2179395E3,3.7773867E3,1.3052295E4,2.5987808E3,5.118961E3,3.0729531E3,1.4056299E3,2.4594785E3,1.8384622E3,4.033289E3,1.8559258E3,2.6887695E3,8.012722E2,3.173405E3,1.4502161E3,3.847809E3,1.8562617E3,1.5318086E3,2.3802114E3,2.8914277E3,4.188244E3,2.0754375E3,1.8019326E3,6.68395E2,9.7236816E2,1.1213687E3,8.031094E2,1.4754379E3,6.136421E2,2.9904863E3,2.5499496E2,1.7848809E3,5.2009924E2,7.792283E2,7.239568E2,4.195791E2,4.020652E2,2.0028025E3,1.668386E3,1.2650908E3,5.5735333E2,2.29102E3,7.330345E2,9.979175E2,1.130248E3,1.2902156E3,1.0415388E3,4.2565973E2,8.021387E2,2.068146E3,1.7010537E3,1.7059766E3,9.6997754E2,0E0,0E0,0E0,0E0,0E0,0E0,0E0,0E0,0E0,0E0,0E0,0E0,0E0,0E0,0E0,0E0,0E0,0E0,0E0,0E0,0E0,0E0,0E0,0E0,0E0,0E0,0E0,0E0,0E0,0E0,0E0,0E0,0E0,0E0,0E0,0E0,0E0,0E0,0E0,0E0,0E0,0E0,0E0,0E0,0E0,0E0,0E0,0E0,0E0,0E0,0E0,0E0,0E0,0E0,0E0,0E0,0E0,0E0,0E0,0E0,0E0,0E0,0E0,0E0],"parents":[2147483647,0,0,1,1,2,2,3,3,4,4,5,5,6,6,7,7,8,8,9,9,10,10,11,11,12,12,13,13,14,14,15,15,16,16,17,17,18,18,19,19,20,20,21,21,22,22,23,23,24,24,25,25,26,26,27,27,28,28,29,29,30,30,31,31,32,32,33,33,34,34,35,35,36,36,37,37,38,38,39,39,40,40,41,41,42,42,43,43,44,44,45,45,46,46,47,47,48,48,49,49,50,50,51,51,52,52,53,53,54,54,55,55,56,56,57,57,58,58,59,59,60,60,61,61,62,62],"right_children":[2,4,6,8,10,12,14,16,18,20,22,24,26,28,30,32,34,36,38,40,42,44,46,48,50,52,54,56,58,60,62,64,66,68,70,72,74,76,78,80,82,84,86,88,90,92,94,96,98,100,102,104,106,108,110,112,114,116,118,120,122,124,126,-1,-1,-1,-1,-1,-1,-1,-1,-1,-1,-1,-1,-1,-1,-1,-1,-1,-1,-1,-1,-1,-1,-1,-1,-1,-1,-1,-1,-1,-1,-1,-1,-1,-1,-1,-1,-1,-1,-1,-1,-1,-1,-1,-1,-1,-1,-1,-1,-1,-1,-1,-1,-1,-1,-1,-1,-1,-1,-1,-1,-1,-1,-1,-1],"split_conditions":[-6.337386E-2,3.23002E2,-1.5613308E-2,-3.0569887E-1,-2.1372437E0,3.23002E2,3.4E1,2.24036E0,6.9502935E-2,1.4909873E0,2.5421722E0,1.0845038E0,2.5421722E0,1.2371771E0,1.0663158E0,-7.368997E-1,5.9585464E-1,-2.964927E-1,2.0921495E0,-9.703044E-1,1.0047054E0,6.0785675E-1,3.3738217E0,-2.945646E-1,1.8624755E0,-2.394358E0,3.3738217E0,1.9529146E0,8.2762027E-1,7.3145705E-1,3.23002E2,-2.8664812E-1,-7.832107E-2,-2.1214297E0,-2.1372437E0,-3.6471133E0,-6.3359404E-1,2.4550037E0,-1.3282202E-1,1.4E2,-3.6631814E-1,-9.014012E-1,-2.0294087E-1,2.5713882E0,3.3578072E0,2.7575676E0,-1.0057088E0,3.2892478E0,-8.3276045E-1,-2.8433716E-1,2.6939077E0,-4.0060246E-1,9.6283793E-1,-1.910554E0,1.3459623E0,-1.3013991E0,-6.2386453E-1,-1.2184545E0,1.5369347E0,-2.723935E-1,-3.103151E-1,4.3033105E-1,1.6577761E0,7.477119E-4,1.5398092E-3,6.343484E-4,1.8290088E-4,5.0522503E-3,1.978874E-3,1.603541E-2,5.2940166E-3,-3.0500316E-3,2.2815094E-4,1.3586495E-3,6.304405E-4,-1.3178456E-4,5.351229E-4,-2.299339E-3,-5.1278376E-4,3.7615955E-2,1.6770085E-2,2.1879268E-3,-1.1707802E-2,4.8411205E-2,2.3128541E-2,-1.4247081E-2,3.1202987E-2,2.2244023E-3,9.317093E-3,-2.6661933E-3,-1.0919749E-2,1.7622707E-2,-3.0798925E-2,4.4139866E-2,-7.0924493E-3,3.1943538E-4,4.0672855E-3,2.5547785E-4,-2.3523078E-4,-1.0766337E-3,-3.530321E-4,8.425676E-4,4.4257664E-3,2.5872486E-2,8.502237E-3,3.2453332E-3,-2.7752009E-3,-7.5617936E-3,2.989288E-2,5.1097397E-2,-2.968613E-2,1.9862729E-3,5.3005345E-4,6.709962E-3,2.4417746E-3,-4.8697934E-2,-2.1947727E-3,-9.4332965E-3,-2.9391339E-2,-8.2900566E-5,-5.413214E-4,-6.9018005E-4,-1.3609059E-3,-8.517695E-4,-1.642293E-3,-6.1554634E-3,-1.3819138E-2],"split_indices":[9,79,39,7,39,79,1,61,39,20,20,69,20,41,69,9,76,18,17,55,23,39,18,7,55,39,18,10,64,39,79,18,39,4,39,61,9,42,10,1,33,55,11,61,10,29,55,63,59,11,51,10,10,23,41,59,7,33,3,7,33,10,36,0,0,0,0,0,0,0,0,0,0,0,0,0,0,0,0,0,0,0,0,0,0,0,0,0,0,0,0,0,0,0,0,0,0,0,0,0,0,0,0,0,0,0,0,0,0,0,0,0,0,0,0,0,0,0,0,0,0,0,0,0,0,0,0],"split_type":[0,0,0,0,0,0,0,0,0,0,0,0,0,0,0,0,0,0,0,0,0,0,0,0,0,0,0,0,0,0,0,0,0,0,0,0,0,0,0,0,0,0,0,0,0,0,0,0,0,0,0,0,0,0,0,0,0,0,0,0,0,0,0,0,0,0,0,0,0,0,0,0,0,0,0,0,0,0,0,0,0,0,0,0,0,0,0,0,0,0,0,0,0,0,0,0,0,0,0,0,0,0,0,0,0,0,0,0,0,0,0,0,0,0,0,0,0,0,0,0,0,0,0,0,0,0,0],"sum_hessian":[4.5625384E7,2.1037094E7,2.458829E7,2.099596E7,4.113454E4,1.156174E7,1.3026549E7,9.444978E6,1.1550981E7,1.3223749E4,2.791079E4,1.1539267E7,2.2472385E4,4.676793E5,1.255887E7,9.286997E6,1.5798097E5,6.041521E6,5.5094595E6,1.073315E4,2.490599E3,2.7166078E4,7.4470984E2,9.935954E6,1.6033136E6,2.0255738E4,2.2166475E3,4.62291E5,5.3883115E3,1.0808365E7,1.7505054E6,3.666192E6,5.6208055E6,1.4455623E5,1.342473E4,4.9884575E6,1.0530636E6,5.3819895E6,1.2747037E5,8.560982E3,2.1721677E3,2.3095173E3,1.8108165E2,1.203104E4,1.5135038E4,3.996083E2,3.4510153E2,3.6499242E6,6.2860295E6,1.5442649E6,5.9048777E4,6.6012993E3,1.3654438E4,1.1538162E3,1.0628312E3,4.0745728E5,5.483371E4,4.0249585E3,1.3633531E3,7.1490125E6,3.6593522E6,1.7389721E6,1.1533257E4,3.030958E6,6.3523394E5,2.9029518E6,2.7178535E6,1.2276696E4,1.3227953E5,1.5058634E3,1.1918867E4,1.6618766E4,4.971839E6,3.7151306E5,6.815505E5,4.7902765E6,5.917128E5,7.681721E4,5.0653152E4,1.286484E3,7.274498E3,1.9399305E3,2.322371E2,1.6984628E3,6.110547E2,1.2587021E2,5.521144E1,8.585546E3,3.4454946E3,1.3202481E4,1.9325569E3,3.713927E2,2.8215597E1,3.1962268E2,2.5478857E1,3.627148E6,2.2776273E4,1.4213966E6,4.864633E6,7.103206E5,8.339442E5,5.1084176E4,7.964603E3,1.5867056E3,5.0145938E3,8.497935E3,5.1565044E3,1.2563865E2,1.0281775E3,1.0363135E3,2.6517748E1,1.5739542E5,2.5006186E5,1.1481015E4,4.3352695E4,2.8729036E1,3.9962295E3,5.202359E2,8.4311725E2,2.3066745E6,4.842338E6,2.90251E6,7.5684244E5,9.1768144E5,8.212907E5,7.493932E3,4.0393252E3],"tree_param":{"num_deleted":"0","num_feature":"82","num_nodes":"127","size_leaf_vector":"1"}},{"base_weights":[-7.644199E-5,2.8995559E-2,-2.4955947E-2,2.798512E-2,5.4807717E-1,-2.7806903E-3,-4.523729E-2,5.167133E-2,1.1315058E-2,1.6255819E0,4.2512827E-2,-4.0061455E-3,6.281446E-1,9.891784E-2,-5.06646E-2,4.891773E-2,2.0610811E-1,3.1083485E-2,-3.690414E-3,8.5451305E-1,2.3511074E0,-1.5532762E-2,2.050226E0,1.7644358E-3,-6.0748972E-2,3.726319E-1,2.7340295E0,1.0584959E-1,-6.587807E-1,-4.9818665E-2,-5.9416854E-1,7.844737E-2,3.8099706E-2,1.5242566E-1,3.747078E-1,2.1308659E-2,7.519144E-2,-1.8813303E-1,-1.926393E-3,9.917368E-1,1.1119099E-1,2.8104537E0,8.96216E-1,2.8657615E-1,-2.9857966E-1,3.2021987E0,8.422104E-1,2.39044E-2,-1.2036208E-2,-6.506986E-2,1.6934538E-1,8.2163006E-1,5.7213735E-3,1.8837707E0,3.6253252E0,2.822524E-1,8.5187174E-2,-2.763694E-1,-1.538828E0,-4.34016E-2,-1.03615664E-1,-4.645545E-1,-9.8976976E-1,8.61575E-4,1.8818179E-3,6.9460593E-4,2.6923063E-4,9.27732E-3,1.7410816E-3,7.400981E-3,3.7306752E-3,2.8596952E-4,-2.3048476E-3,1.419711E-3,6.9302524E-4,-3.5530531E-3,-1.0648622E-3,2.0483863E-5,-6.118608E-4,5.4195337E-3,1.6320715E-2,-1.9484325E-3,7.3603E-3,2.6648363E-2,4.4148356E-2,2.5240008E-3,3.0811716E-2,1.8323906E-2,2.9349993E-3,-2.2708667E-3,-6.2979716E-3,-3.335944E-2,4.2513933E-2,-3.9439216E-2,1.4357206E-2,2.7047424E-4,2.74296E-3,-2.477455E-4,1.65224E-4,-4.0775945E-4,-1.1290221E-3,2.1808036E-3,-4.599742E-2,1.8687809E-2,6.8387063E-3,9.486272E-4,-4.1944357E-3,4.0304806E-2,1.73583E-2,4.7548193E-2,-3.157251E-2,3.1788736E-3,1.3766528E-2,1.852074E-3,6.58449E-4,-1.314791E-2,-9.2592504E-4,-2.9971693E-2,-4.8480663E-3,-2.793046E-4,-6.998359E-4,-1.0454523E-3,-1.850906E-3,-6.1484873E-3,1.8952666E-2,-1.1077817E-2,-2.2556659E-2],"categories":[],"categories_nodes":[],"categories_segments":[],"categories_sizes":[],"default_left":[0,0,0,0,0,0,0,0,0,0,0,0,0,0,0,0,0,1,0,0,0,0,0,0,0,0,1,0,0,0,0,0,0,0,0,0,0,0,0,0,0,0,0,0,0,1,0,0,0,0,0,0,0,0,0,1,1,0,0,0,0,0,0,0,0,0,0,0,0,0,0,0,0,0,0,0,0,0,0,0,0,0,0,0,0,0,0,0,0,0,0,0,0,0,0,0,0,0,0,0,0,0,0,0,0,0,0,0,0,0,0,0,0,0,0,0,0,0,0,0,0,0,0,0,0,0,0],"id":4,"left_children":[1,3,5,7,9,11,13,15,17,19,21,23,25,27,29,31,33,35,37,39,41,43,45,47,49,51,53,55,57,59,61,63,65,67,69,71,73,75,77,79,81,83,85,87,89,91,93,95,97,99,101,103,105,107,109,111,113,115,117,119,121,123,125,-1,-1,-1,-1,-1,-1,-1,-1,-1,-1,-1,-1,-1,-1,-1,-1,-1,-1,-1,-1,-1,-1,-1,-1,-1,-1,-1,-1,-1,-1,-1,-1,-1,-1,-1,-1,-1,-1,-1,-1,-1,-1,-1,-1,-1,-1,-1,-1,-1,-1,-1,-1,-1,-1,-1,-1,-1,-1,-1,-1,-1,-1,-1,-1],"loss_changes":[3.300428E4,1.1036543E4,1.1058346E4,8.292385E3,2.2269238E4,9.081315E3,1.0047621E4,3.689082E3,3.6564038E3,7.2975938E3,3.2433848E3,3.8385352E3,1.2248515E4,2.4474507E3,5.6901875E3,2.722705E3,1.375189E3,2.293251E3,2.279875E3,6.45584E2,4.4866367E3,2.3132087E3,1.0802703E3,3.251236E3,1.0758892E3,3.3456116E3,1.8470781E3,1.6828965E3,1.4202821E3,4.2659297E3,9.8472705E2,1.6313174E3,1.7772373E3,9.5830664E2,6.1302783E2,1.2336746E3,7.30187E2,6.454807E2,1.1497583E3,9.096406E2,1.2480673E2,2.4428477E3,1.7424105E3,8.18437E2,3.3234253E2,4.2644043E2,4.6490726E2,1.9305356E3,1.2571666E3,8.5237744E2,2.8586823E2,1.6823447E3,2.6337228E2,8.3014014E2,1.1173838E3,1.1744268E3,8.411384E2,4.5850635E2,1.2367324E3,2.8462715E3,1.1765732E3,6.701333E2,4.151709E2,0E0,0E0,0E0,0E0,0E0,0E0,0E0,0E0,0E0,0E0,0E0,0E0,0E0,0E0,0E0,0E0,0E0,0E0,0E0,0E0,0E0,0E0,0E0,0E0,0E0,0E0,0E0,0E0,0E0,0E0,0E0,0E0,0E0,0E0,0E0,0E0,0E0,0E0,0E0,0E0,0E0,0E0,0E0,0E0,0E0,0E0,0E0,0E0,0E0,0E0,0E0,0E0,0E0,0E0,0E0,0E0,0E0,0E0,0E0,0E0,0E0,0E0,0E0,0E0],"parents":[2147483647,0,0,1,1,2,2,3,3,4,4,5,5,6,6,7,7,8,8,9,9,10,10,11,11,12,12,13,13,14,14,15,15,16,16,17,17,18,18,19,19,20,20,21,21,22,22,23,23,24,24,25,25,26,26,27,27,28,28,29,29,30,30,31,31,32,32,33,33,34,34,35,35,36,36,37,37,38,38,39,39,40,40,41,41,42,42,43,43,44,44,45,45,46,46,47,47,48,48,49,49,50,50,51,51,52,52,53,53,54,54,55,55,56,56,57,57,58,58,59,59,60,60,61,61,62,62],"right_children":[2,4,6,8,10,12,14,16,18,20,22,24,26,28,30,32,34,36,38,40,42,44,46,48,50,52,54,56,58,60,62,64,66,68,70,72,74,76,78,80,82,84,86,88,90,92,94,96,98,100,102,104,106,108,110,112,114,116,118,120,122,124,126,-1,-1,-1,-1,-1,-1,-1,-1,-1,-1,-1,-1,-1,-1,-1,-1,-1,-1,-1,-1,-1,-1,-1,-1,-1,-1,-1,-1,-1,-1,-1,-1,-1,-1,-1,-1,-1,-1,-1,-1,-1,-1,-1,-1,-1,-1,-1,-1,-1,-1,-1,-1,-1,-1,-1,-1,-1,-1,-1,-1,-1,-1,-1,-1],"split_conditions":[-6.337386E-2,3.3919257E2,-8.608585E-4,-4.0766057E-1,-2.1372437E0,3.3919257E2,3.4E1,2.24036E0,-1.1763935E-1,2.2887478E0,2.5421722E0,1.3457679E0,2.0803294E0,1.3459623E0,3.3919257E2,-1.0484413E0,6.238914E-1,-3.0577168E-1,-2.9544752E0,-1.9970569E-3,6.6869664E-3,9.743108E-1,8.114186E-2,-2.5014064E-1,2.7439039E0,-2.1372437E0,2.545461E0,-1.4407771E0,1.474E3,1.2304567E0,2.0728307E0,-1.6747066E-1,-1.333937E-1,8.75E2,-2.6880898E0,3.223454E0,-6.4723617E-1,2.7915797E-1,1.3974054E0,1.4638549E0,1.483E3,2.2534556E0,3.381163E0,1.25E2,5.457247E-1,-1.3751194E0,-4.5410854E-1,2.7439039E0,-6.608095E-3,8.34E2,3.3161337E0,3.17E2,9.29E2,-1.2748488E0,1.3459623E0,2.0239542E0,-7.4906176E-1,9E0,1.547E3,-1.3034321E-1,8.993065E-1,2.5421722E0,2.54224E0,8.61575E-4,1.8818179E-3,6.9460593E-4,2.6923063E-4,9.27732E-3,1.7410816E-3,7.400981E-3,3.7306752E-3,2.8596952E-4,-2.3048476E-3,1.419711E-3,6.9302524E-4,-3.5530531E-3,-1.0648622E-3,2.0483863E-5,-6.118608E-4,5.4195337E-3,1.6320715E-2,-1.9484325E-3,7.3603E-3,2.6648363E-2,4.4148356E-2,2.5240008E-3,3.0811716E-2,1.8323906E-2,2.9349993E-3,-2.2708667E-3,-6.2979716E-3,-3.335944E-2,4.2513933E-2,-3.9439216E-2,1.4357206E-2,2.7047424E-4,2.74296E-3,-2.477455E-4,1.65224E-4,-4.0775945E-4,-1.1290221E-3,2.1808036E-3,-4.599742E-2,1.8687809E-2,6.8387063E-3,9.486272E-4,-4.1944357E-3,4.0304806E-2,1.73583E-2,4.7548193E-2,-3.157251E-2,3.1788736E-3,1.3766528E-2,1.852074E-3,6.58449E-4,-1.314791E-2,-9.2592504E-4,-2.9971693E-2,-4.8480663E-3,-2.793046E-4,-6.998359E-4,-1.0454523E-3,-1.850906E-3,-6.1484873E-3,1.8952666E-2,-1.1077817E-2,-2.2556659E-2],"split_indices":[9,78,39,7,39,78,1,61,39,53,20,22,20,41,78,9,80,18,61,62,62,39,73,7,62,39,18,7,0,22,9,20,39,0,7,75,9,26,22,61,0,37,20,1,26,58,70,62,16,1,40,1,1,45,41,61,61,2,0,7,9,20,7,0,0,0,0,0,0,0,0,0,0,0,0,0,0,0,0,0,0,0,0,0,0,0,0,0,0,0,0,0,0,0,0,0,0,0,0,0,0,0,0,0,0,0,0,0,0,0,0,0,0,0,0,0,0,0,0,0,0,0,0,0,0,0,0],"split_type":[0,0,0,0,0,0,0,0,0,0,0,0,0,0,0,0,0,0,0,0,0,0,0,0,0,0,0,0,0,0,0,0,0,0,0,0,0,0,0,0,0,0,0,0,0,0,0,0,0,0,0,0,0,0,0,0,0,0,0,0,0,0,0,0,0,0,0,0,0,0,0,0,0,0,0,0,0,0,0,0,0,0,0,0,0,0,0,0,0,0,0,0,0,0,0,0,0,0,0,0,0,0,0,0,0,0,0,0,0,0,0,0,0,0,0,0,0,0,0,0,0,0,0,0,0,0,0],"sum_hessian":[4.563032E7,2.1042224E7,2.4588098E7,2.1001346E7,4.0877844E4,1.1745639E7,1.2842459E7,8.675071E6,1.2326275E7,1.3052588E4,2.7825256E4,1.1722872E7,2.2766543E4,4.6596112E5,1.2376498E7,8.523109E6,1.519622E5,5.3189795E6,7.007296E6,6.330706E3,6.7218823E3,2.7046018E4,7.79239E2,1.064074E7,1.0821319E6,2.030608E4,2.4604639E3,4.617395E5,4.221637E3,1.2357268E7,1.9230225E4,2.2852098E6,6.237899E6,1.15266984E5,3.6695215E4,4.354074E6,9.6490556E5,6.637989E4,6.940916E6,5.34321E3,9.87496E2,5.106848E3,1.615034E3,1.3082259E4,1.3963759E4,3.9647244E2,3.8276657E2,4.085884E6,6.554856E6,1.0621879E6,1.9944066E4,9.129856E3,1.1176224E4,1.2637178E3,1.1967461E3,4.8409375E4,4.1333012E5,2.9455027E3,1.2761344E3,1.104035E7,1.3169181E6,1.4489319E4,4.7409053E3,2.001062E6,2.841477E5,3.0916378E6,3.1462612E6,2.7416194E3,1.1252537E5,9.89904E3,2.6796176E4,4.3246995E6,2.9374186E4,3.377726E5,6.2713294E5,3.482801E4,3.1551885E4,6.4496485E6,4.912677E5,1.8772363E3,3.4659736E3,6.332106E2,3.542854E2,2.5552327E3,2.5516157E3,1.1166426E3,4.983914E2,5.7126917E2,1.251099E4,8.796675E3,5.1670835E3,1.0157003E1,3.8631543E2,2.4776487E1,3.5799008E2,4.0351195E6,5.0764395E4,5.029684E6,1.5251722E6,4.5527138E5,6.0691644E5,1.9927271E4,1.6795979E1,2.7037568E3,6.4261E3,9.273538E3,1.9026852E3,3.470329E2,9.166849E2,1.1695374E3,2.720866E1,4.668698E4,1.7223942E3,1.4367075E5,2.6965938E5,6.1354285E2,2.33196E3,7.368393E2,5.3929517E2,4.0161298E6,7.02422E6,8.9165344E5,4.2526462E5,1.4321103E4,1.6821672E2,4.1707188E3,5.701868E2],"tree_param":{"num_deleted":"0","num_feature":"82","num_nodes":"127","size_leaf_vector":"1"}},{"base_weights":[6.877581E-5,3.0342696E-2,-2.312884E-2,2.913918E-2,3.934125E-1,-1.669184E-2,-7.687237E-2,5.1426124E-2,1.1489662E-2,2.003568E0,2.8535092E-1,-1.9085662E-2,1.2702714E-1,1.0854608E0,-7.7843376E-2,8.2673654E-2,3.9212573E-2,1.3085678E-2,-1.9082843E-1,2.6497972E0,6.1213905E-1,1.6844238E-1,6.500466E-1,4.9649538E-3,-3.16227E-2,1.1787716E-1,1.2590452E0,3.1473818E-1,2.9468365E0,-4.2642713E-2,-1.0799896E-1,7.131123E-2,1.6017236E-1,3.2905605E-2,6.536454E-2,6.9747074E-3,4.7848117E-2,-3.0324408E-1,-4.1664384E-2,2.974646E0,1.2633073E0,2.6554723E0,5.481415E-1,1.1540215E0,1.4633135E-1,1.086299E0,4.5053485E-1,-1.2896706E-3,4.843266E-2,-1.2894853E-2,-4.5080747E-2,1.2714586E-1,-4.0140644E-1,2.362217E0,-4.664717E-2,1.7274174E-1,1.5545173E0,9.477165E-1,3.503642E0,-2.5334125E-2,-6.492687E-2,-1.18597195E-1,3.0600807E-2,2.0219248E-3,8.213576E-4,1.9045948E-3,7.6749423E-3,4.5359755E-4,-1.7110845E-4,1.2560727E-3,5.7357864E-4,1.362714E-4,-5.5438635E-4,5.9161923E-4,2.1010567E-2,-3.0802058E-3,-7.1799685E-3,-9.946777E-4,2.1667045E-3,2.80138E-2,4.896588E-2,5.1979995E-3,3.1780843E-2,-1.5767433E-3,5.0985195E-2,4.0789668E-2,6.350554E-3,3.1348374E-2,5.206224E-3,1.6183935E-3,1.205179E-2,2.663441E-2,9.7604655E-3,-1.0199683E-2,6.106918E-3,1.8799766E-4,-2.1547866E-4,2.637081E-3,4.9546576E-4,-3.2092907E-4,1.333724E-4,-3.5748017E-4,-7.8868266E-4,6.9383844E-3,1.4720043E-3,-2.545775E-2,-2.6190402E-3,4.18141E-2,1.7564708E-2,-1.7593966E-3,2.4858128E-2,1.6530896E-2,1.0196675E-3,-8.185806E-3,2.5075275E-2,2.137765E-2,-7.545358E-5,9.466282E-3,4.8707034E-2,-4.14305E-4,5.211233E-4,-8.362503E-4,2.6599453E-3,-1.1862633E-3,-2.3181166E-3,5.862338E-4,-7.100018E-3],"categories":[],"categories_nodes":[],"categories_segments":[],"categories_sizes":[],"default_left":[0,1,0,0,0,0,0,0,0,0,0,0,0,0,0,0,0,0,0,0,0,0,1,0,0,0,0,0,0,0,0,1,0,0,1,0,0,0,0,1,1,0,0,0,0,0,0,0,0,0,0,0,0,0,0,0,0,0,0,0,1,0,0,0,0,0,0,0,0,0,0,0,0,0,0,0,0,0,0,0,0,0,0,0,0,0,0,0,0,0,0,0,0,0,0,0,0,0,0,0,0,0,0,0,0,0,0,0,0,0,0,0,0,0,0,0,0,0,0,0,0,0,0,0,0,0,0],"id":5,"left_children":[1,3,5,7,9,11,13,15,17,19,21,23,25,27,29,31,33,35,37,39,41,43,45,47,49,51,53,55,57,59,61,63,65,67,69,71,73,75,77,79,81,83,85,87,89,91,93,95,97,99,101,103,105,107,109,111,113,115,117,119,121,123,125,-1,-1,-1,-1,-1,-1,-1,-1,-1,-1,-1,-1,-1,-1,-1,-1,-1,-1,-1,-1,-1,-1,-1,-1,-1,-1,-1,-1,-1,-1,-1,-1,-1,-1,-1,-1,-1,-1,-1,-1,-1,-1,-1,-1,-1,-1,-1,-1,-1,-1,-1,-1,-1,-1,-1,-1,-1,-1,-1,-1,-1,-1,-1,-1],"loss_changes":[3.2045428E4,8.649928E3,8.937356E3,7.761051E3,1.1377932E4,7.9373643E3,3.1188516E3,3.3277852E3,3.5554038E3,3.693207E3,2.612874E3,6.842544E3,3.9145576E3,3.3060698E3,2.930752E3,2.1577188E3,1.0340312E3,2.3207349E3,1.4450225E3,1.2535508E3,1.6661108E2,1.01092065E3,1.2933496E3,2.1141006E3,3.7597314E3,1.8048047E3,4.3654624E3,2.8675937E2,7.416216E2,4.9135107E2,2.184377E3,1.1668428E3,1.2676348E3,7.265366E2,8.2961084E2,1.8188914E3,2.3651597E3,7.6964404E2,2.949984E2,1.531582E3,5.728213E2,1.5250366E2,1.4593936E2,1.00279614E3,6.5748956E2,1.489543E3,4.4043213E2,1.742368E3,1.4333601E3,1.8417703E3,2.5399746E3,1.6098599E3,2.0591206E3,1.5075684E3,2.6165372E2,1.5325516E2,1.6458823E2,1.0802237E2,5.1633594E2,3.609147E2,2.2172827E2,2.208129E3,9.9945123E2,0E0,0E0,0E0,0E0,0E0,0E0,0E0,0E0,0E0,0E0,0E0,0E0,0E0,0E0,0E0,0E0,0E0,0E0,0E0,0E0,0E0,0E0,0E0,0E0,0E0,0E0,0E0,0E0,0E0,0E0,0E0,0E0,0E0,0E0,0E0,0E0,0E0,0E0,0E0,0E0,0E0,0E0,0E0,0E0,0E0,0E0,0E0,0E0,0E0,0E0,0E0,0E0,0E0,0E0,0E0,0E0,0E0,0E0,0E0,0E0,0E0,0E0,0E0,0E0],"parents":[2147483647,0,0,1,1,2,2,3,3,4,4,5,5,6,6,7,7,8,8,9,9,10,10,11,11,12,12,13,13,14,14,15,15,16,16,17,17,18,18,19,19,20,20,21,21,22,22,23,23,24,24,25,25,26,26,27,27,28,28,29,29,30,30,31,31,32,32,33,33,34,34,35,35,36,36,37,37,38,38,39,39,40,40,41,41,42,42,43,43,44,44,45,45,46,46,47,47,48,48,49,49,50,50,51,51,52,52,53,53,54,54,55,55,56,56,57,57,58,58,59,59,60,60,61,61,62,62],"right_children":[2,4,6,8,10,12,14,16,18,20,22,24,26,28,30,32,34,36,38,40,42,44,46,48,50,52,54,56,58,60,62,64,66,68,70,72,74,76,78,80,82,84,86,88,90,92,94,96,98,100,102,104,106,108,110,112,114,116,118,120,122,124,126,-1,-1,-1,-1,-1,-1,-1,-1,-1,-1,-1,-1,-1,-1,-1,-1,-1,-1,-1,-1,-1,-1,-1,-1,-1,-1,-1,-1,-1,-1,-1,-1,-1,-1,-1,-1,-1,-1,-1,-1,-1,-1,-1,-1,-1,-1,-1,-1,-1,-1,-1,-1,-1,-1,-1,-1,-1,-1,-1,-1,-1,-1,-1,-1],"split_conditions":[-1.0301463E-1,3.1908574E0,1.2304567E0,-3.394074E-1,-1.7334446E0,2.5713882E0,-2.2301188E0,-1.0484413E0,3.223454E0,-2.5292635E-1,6.8156344E-1,-2.723935E-1,3.4541535E0,3.1908574E0,2.1909776E-1,-1.528072E-1,-3.316299E-1,-1.1215435E-1,-1.2101237E-1,6.6869664E-3,-2.1974704E0,-1.0000882E0,-1.6545924E0,7.7547044E-1,-3.3018622E-1,3.0525572E0,2.4303491E-1,3.6433405E2,-1.1148602E0,1.8013343E-2,2.0401888E0,-1.5972086E0,3.8476393E0,1.5467653E0,-3.0542487E-1,1.4249814E0,3.6433405E2,6.416484E-1,1.1473483E0,-6.205473E-1,3.982802E-1,2.0386636E0,-6.4279985E-1,-2.784837E-1,3.4541535E0,-1.9086493E-2,-1.4706407E0,6.9936016E-4,-2.2378798E0,-1.11051925E-1,3.9824E-1,-1.399143E0,-1.6842455E0,6.6869664E-3,1.1277839E0,-2.1472242E0,-1.0209037E0,3.8476393E0,-4.469742E-1,8.2826275E-1,2.463381E0,1.1420743E0,2.54224E0,2.0219248E-3,8.213576E-4,1.9045948E-3,7.6749423E-3,4.5359755E-4,-1.7110845E-4,1.2560727E-3,5.7357864E-4,1.362714E-4,-5.5438635E-4,5.9161923E-4,2.1010567E-2,-3.0802058E-3,-7.1799685E-3,-9.946777E-4,2.1667045E-3,2.80138E-2,4.896588E-2,5.1979995E-3,3.1780843E-2,-1.5767433E-3,5.0985195E-2,4.0789668E-2,6.350554E-3,3.1348374E-2,5.206224E-3,1.6183935E-3,1.205179E-2,2.663441E-2,9.7604655E-3,-1.0199683E-2,6.106918E-3,1.8799766E-4,-2.1547866E-4,2.637081E-3,4.9546576E-4,-3.2092907E-4,1.333724E-4,-3.5748017E-4,-7.8868266E-4,6.9383844E-3,1.4720043E-3,-2.545775E-2,-2.6190402E-3,4.18141E-2,1.7564708E-2,-1.7593966E-3,2.4858128E-2,1.6530896E-2,1.0196675E-3,-8.185806E-3,2.5075275E-2,2.137765E-2,-7.545358E-5,9.466282E-3,4.8707034E-2,-4.14305E-4,5.211233E-4,-8.362503E-4,2.6599453E-3,-1.1862633E-3,-2.3181166E-3,5.862338E-4,-7.100018E-3],"split_indices":[9,61,22,7,36,61,36,9,75,16,81,7,19,61,8,20,18,18,10,62,22,52,45,62,59,4,54,81,64,7,63,11,81,22,36,22,81,81,32,11,18,8,73,16,19,75,28,52,7,16,9,36,8,62,27,10,64,81,19,62,24,9,7,0,0,0,0,0,0,0,0,0,0,0,0,0,0,0,0,0,0,0,0,0,0,0,0,0,0,0,0,0,0,0,0,0,0,0,0,0,0,0,0,0,0,0,0,0,0,0,0,0,0,0,0,0,0,0,0,0,0,0,0,0,0,0,0],"split_type":[0,0,0,0,0,0,0,0,0,0,0,0,0,0,0,0,0,0,0,0,0,0,0,0,0,0,0,0,0,0,0,0,0,0,0,0,0,0,0,0,0,0,0,0,0,0,0,0,0,0,0,0,0,0,0,0,0,0,0,0,0,0,0,0,0,0,0,0,0,0,0,0,0,0,0,0,0,0,0,0,0,0,0,0,0,0,0,0,0,0,0,0,0,0,0,0,0,0,0,0,0,0,0,0,0,0,0,0,0,0,0,0,0,0,0,0,0,0,0,0,0,0,0,0,0,0,0],"sum_hessian":[4.5630376E7,1.9795878E7,2.5834498E7,1.9730478E7,6.5399887E4,2.3071206E7,2.7632918E6,8.719681E6,1.1010797E7,4.1099736E3,6.1289914E4,2.2693224E7,3.7798147E5,2.3038113E3,2.760988E6,2.4504212E6,6.2692605E6,1.092462E7,8.6177266E4,2.804748E3,1.3052255E3,4.6415227E4,1.4874686E4,7.776002E6,1.4917222E7,3.7495394E5,3.0275361E3,1.6315599E3,6.722512E2,1.273934E6,1.487054E6,2.1370985E6,3.1332253E5,5.0511135E6,1.2181468E6,9.291289E6,1.6333308E6,4.91399E4,3.7037367E4,2.2696968E3,5.350512E2,3.61638E1,1.2690616E3,1.0152138E3,4.540001E4,4.663819E3,1.0210867E4,6.7978505E6,9.781516E5,6.237418E6,8.679803E6,3.6838103E5,6.5728975E3,1.6398671E3,1.3876691E3,1.4668232E3,1.6473677E2,1.4813239E2,5.2411884E2,7.170202E5,5.5691375E5,1.3814228E6,1.0563124E5,1.3735166E5,1.999747E6,3.0715934E5,6.163176E3,4.7358845E6,3.152292E5,4.4623112E5,7.719156E5,8.640311E6,6.5097844E5,1.6324324E6,8.9833167E2,4.026694E4,8.872954E3,3.153647E4,5.500898E3,1.249495E3,1.0202017E3,3.2154803E2,2.1350314E2,1.2872367E1,2.3291433E1,1.719877E1,1.2518629E3,3.600989E2,6.551149E2,4.4422582E4,9.7743243E2,1.0815331E3,3.582286E3,2.6761093E2,9.943256E3,3.3566438E6,3.4412068E6,5.242272E4,9.257289E5,4.0618985E6,2.1755198E6,4.4418435E6,4.23796E6,8.759247E3,3.596218E5,6.989759E2,5.8739214E3,8.2151715E2,8.1835E2,1.3291172E3,5.855181E1,1.0654763E2,1.3602755E3,2.6911478E1,1.3782529E2,8.183362E1,6.6298775E1,6.1953217E1,4.6216565E2,6.441313E5,7.2888875E4,5.540217E5,2.8920708E3,1.00544125E6,3.759815E5,1.02876234E5,2.7550024E3],"tree_param":{"num_deleted":"0","num_feature":"82","num_nodes":"127","size_leaf_vector":"1"}},{"base_weights":[-3.3843324E-5,2.872819E-2,-2.3876412E-2,2.7724639E-2,5.4083294E-1,1.3142658E-4,-4.2123865E-2,4.688804E-2,1.0086086E-2,1.5938559E0,2.6415829E-2,-1.1649863E-3,6.207255E-1,9.59969E-2,-4.692832E-2,3.7638497E-2,8.799996E-2,3.2178763E-2,-1.7314438E-3,8.9156663E-1,2.268005E0,5.3736913E-1,-1.5508969E-1,3.8176423E-3,-6.4380236E-2,3.648642E-1,2.7442808E0,1.0240309E-1,-7.497303E-1,-4.0544145E-2,-1.0749082E-1,3.7059646E-2,3.804526E-1,1.2470408E-1,6.510833E-2,-7.13426E-2,3.623943E-2,-1.5704526E-4,-1.07768305E-1,1.4430084E0,5.2628696E-1,2.766227E0,2.9547533E-1,4.6154037E-1,2.6707115E0,-1.9421196E-1,1.5688908E0,2.7018483E-3,2.3292492E-1,-6.8320505E-2,3.0612448E-1,7.918224E-1,1.0909933E-2,3.289452E0,1.5239457E0,8.230186E-2,2.5387555E-1,-3.2607695E-1,-1.6598963E0,-2.7728485E-2,-6.2698126E-2,-1.02575414E-1,-7.219611E-1,7.53007E-4,3.6869457E-4,4.438092E-3,2.7109027E-2,6.965104E-4,1.8590523E-3,1.0949876E-3,5.79968E-4,-3.2654298E-3,-5.483736E-4,3.8682856E-4,1.3061232E-3,1.4568792E-3,-1.8402205E-5,-1.0440638E-3,-3.998221E-3,2.702475E-2,1.4745825E-2,-1.196727E-3,7.9855425E-3,2.64935E-2,4.325342E-2,-1.6028816E-3,1.7378168E-2,3.1385391E-3,1.0944101E-2,1.8486594E-3,4.288875E-2,6.875358E-4,-5.6308447E-3,2.9644903E-2,-1.3389508E-2,4.4054873E-4,-6.038466E-5,1.3748067E-3,4.318952E-3,-4.540483E-4,-1.2019136E-3,3.4652452E-3,1.8518703E-2,2.2362981E-2,6.8044867E-3,1.3534306E-3,-6.166525E-3,2.0191222E-2,4.765367E-2,8.872308E-3,3.8612787E-2,1.7375478E-3,3.138714E-4,1.7310051E-3,4.833306E-3,-8.183268E-3,4.428658E-3,-2.8353328E-2,-5.1477407E-3,-1.321603E-4,-4.940913E-4,-6.56539E-4,-1.3122965E-3,-8.9074747E-4,-1.6317306E-3,-1.1427185E-2,-3.962821E-3],"categories":[],"categories_nodes":[],"categories_segments":[],"categories_sizes":[],"default_left":[0,0,0,0,0,0,0,0,0,0,0,0,0,0,1,0,0,0,0,0,1,0,0,0,0,0,0,0,0,0,0,0,0,0,0,0,0,0,0,0,0,0,0,0,0,0,0,0,0,1,0,0,0,0,0,0,1,0,0,0,0,0,0,0,0,0,0,0,0,0,0,0,0,0,0,0,0,0,0,0,0,0,0,0,0,0,0,0,0,0,0,0,0,0,0,0,0,0,0,0,0,0,0,0,0,0,0,0,0,0,0,0,0,0,0,0,0,0,0,0,0,0,0,0,0,0,0],"id":6,"left_children":[1,3,5,7,9,11,13,15,17,19,21,23,25,27,29,31,33,35,37,39,41,43,45,47,49,51,53,55,57,59,61,63,65,67,69,71,73,75,77,79,81,83,85,87,89,91,93,95,97,99,101,103,105,107,109,111,113,115,117,119,121,123,125,-1,-1,-1,-1,-1,-1,-1,-1,-1,-1,-1,-1,-1,-1,-1,-1,-1,-1,-1,-1,-1,-1,-1,-1,-1,-1,-1,-1,-1,-1,-1,-1,-1,-1,-1,-1,-1,-1,-1,-1,-1,-1,-1,-1,-1,-1,-1,-1,-1,-1,-1,-1,-1,-1,-1,-1,-1,-1,-1,-1,-1,-1,-1,-1],"loss_changes":[3.1295193E4,1.0629879E4,1.0930912E4,6.9778096E3,2.1913299E4,8.669159E3,9.407547E3,3.7623672E3,2.8064785E3,6.2796914E3,2.5210012E3,3.3868606E3,1.2201439E4,2.5820269E3,5.2969863E3,1.6026826E3,1.5267764E3,1.5747476E3,1.1691508E3,1.3083926E3,6.652625E3,1.1488323E3,1.3535007E3,2.5479136E3,1.146925E3,3.0299404E3,1.5921172E3,1.4399907E3,1.3797662E3,3.518754E3,3.9457031E3,1.4275176E3,6.781057E2,1.1067422E3,4.6536963E2,7.387695E2,1.3460864E3,1.0414385E3,5.3462866E2,4.885337E2,2.6192102E2,2.3705156E3,6.2763495E2,5.945658E2,4.4957703E2,1.2331621E3,9.256957E2,2.3981907E3,6.5683374E2,6.793213E2,2.9788446E2,2.246333E3,5.295379E2,1.3675391E3,9.419541E2,1.3323672E3,8.371289E2,5.3714404E2,8.372449E2,1.5546006E3,1.9941699E3,1.1126064E3,7.8036035E2,0E0,0E0,0E0,0E0,0E0,0E0,0E0,0E0,0E0,0E0,0E0,0E0,0E0,0E0,0E0,0E0,0E0,0E0,0E0,0E0,0E0,0E0,0E0,0E0,0E0,0E0,0E0,0E0,0E0,0E0,0E0,0E0,0E0,0E0,0E0,0E0,0E0,0E0,0E0,0E0,0E0,0E0,0E0,0E0,0E0,0E0,0E0,0E0,0E0,0E0,0E0,0E0,0E0,0E0,0E0,0E0,0E0,0E0,0E0,0E0,0E0,0E0,0E0,0E0],"parents":[2147483647,0,0,1,1,2,2,3,3,4,4,5,5,6,6,7,7,8,8,9,9,10,10,11,11,12,12,13,13,14,14,15,15,16,16,17,17,18,18,19,19,20,20,21,21,22,22,23,23,24,24,25,25,26,26,27,27,28,28,29,29,30,30,31,31,32,32,33,33,34,34,35,35,36,36,37,37,38,38,39,39,40,40,41,41,42,42,43,43,44,44,45,45,46,46,47,47,48,48,49,49,50,50,51,51,52,52,53,53,54,54,55,55,56,56,57,57,58,58,59,59,60,60,61,61,62,62],"right_children":[2,4,6,8,10,12,14,16,18,20,22,24,26,28,30,32,34,36,38,40,42,44,46,48,50,52,54,56,58,60,62,64,66,68,70,72,74,76,78,80,82,84,86,88,90,92,94,96,98,100,102,104,106,108,110,112,114,116,118,120,122,124,126,-1,-1,-1,-1,-1,-1,-1,-1,-1,-1,-1,-1,-1,-1,-1,-1,-1,-1,-1,-1,-1,-1,-1,-1,-1,-1,-1,-1,-1,-1,-1,-1,-1,-1,-1,-1,-1,-1,-1,-1,-1,-1,-1,-1,-1,-1,-1,-1,-1,-1,-1,-1,-1,-1,-1,-1,-1,-1,-1,-1,-1,-1,-1,-1],"split_conditions":[-7.4589066E-2,3.3919257E2,-9.402858E-2,-9.402858E-2,-2.1372437E0,3.3919257E2,3.4E1,-3.103151E-1,-7.2102803E-1,2.2887478E0,-2.7232298E-1,1.4835938E0,2.0803294E0,1.4312946E0,1.2931002E0,3.2892478E0,-6.75659E-1,-1.5675932E0,2.3284256E0,-8.363427E-1,-9.468972E-1,2.0803294E0,3.4541535E0,3.2892478E0,3.5078807E0,-2.1372437E0,-8.1294334E-1,1.9529146E0,1.474E3,6.5085155E-1,3.3919257E2,-9.963965E-1,3.4541535E0,-5.3472555E-1,-6.845647E-1,-2.632964E0,2.2610882E-1,1.6E1,2.7827187E0,6.08E2,1.9060022E0,2.3197212E0,1.481E3,1.7291354E0,3.8879894E-2,1.6399617E0,1.2361798E0,-8.363366E-1,1.0113069E0,-2.4893968E-3,4.088205E0,-3.9239714E-1,2.070788E0,1.54839E0,1.481E3,-1.0715204E0,2.1468962E-2,-3.8168326E-1,8.9714116E-1,5.9974857E-2,-3.103151E-1,3.1903252E-1,-8.4565794E-1,7.53007E-4,3.6869457E-4,4.438092E-3,2.7109027E-2,6.965104E-4,1.8590523E-3,1.0949876E-3,5.79968E-4,-3.2654298E-3,-5.483736E-4,3.8682856E-4,1.3061232E-3,1.4568792E-3,-1.8402205E-5,-1.0440638E-3,-3.998221E-3,2.702475E-2,1.4745825E-2,-1.196727E-3,7.9855425E-3,2.64935E-2,4.325342E-2,-1.6028816E-3,1.7378168E-2,3.1385391E-3,1.0944101E-2,1.8486594E-3,4.288875E-2,6.875358E-4,-5.6308447E-3,2.9644903E-2,-1.3389508E-2,4.4054873E-4,-6.038466E-5,1.3748067E-3,4.318952E-3,-4.540483E-4,-1.2019136E-3,3.4652452E-3,1.8518703E-2,2.2362981E-2,6.8044867E-3,1.3534306E-3,-6.166525E-3,2.0191222E-2,4.765367E-2,8.872308E-3,3.8612787E-2,1.7375478E-3,3.138714E-4,1.7310051E-3,4.833306E-3,-8.183268E-3,4.428658E-3,-2.8353328E-2,-5.1477407E-3,-1.321603E-4,-4.940913E-4,-6.56539E-4,-1.3122965E-3,-8.9074747E-4,-1.6317306E-3,-1.1427185E-2,-3.962821E-3],"split_indices":[9,78,39,39,39,78,1,33,9,53,10,22,20,41,69,63,9,50,73,10,55,20,19,63,62,39,55,10,0,39,78,9,19,62,39,56,20,1,41,1,60,37,0,53,35,39,73,48,59,34,27,10,10,37,0,59,34,33,37,10,33,10,55,0,0,0,0,0,0,0,0,0,0,0,0,0,0,0,0,0,0,0,0,0,0,0,0,0,0,0,0,0,0,0,0,0,0,0,0,0,0,0,0,0,0,0,0,0,0,0,0,0,0,0,0,0,0,0,0,0,0,0,0,0,0,0,0],"split_type":[0,0,0,0,0,0,0,0,0,0,0,0,0,0,0,0,0,0,0,0,0,0,0,0,0,0,0,0,0,0,0,0,0,0,0,0,0,0,0,0,0,0,0,0,0,0,0,0,0,0,0,0,0,0,0,0,0,0,0,0,0,0,0,0,0,0,0,0,0,0,0,0,0,0,0,0,0,0,0,0,0,0,0,0,0,0,0,0,0,0,0,0,0,0,0,0,0,0,0,0,0,0,0,0,0,0,0,0,0,0,0,0,0,0,0,0,0,0,0,0,0,0,0,0,0,0,0],"sum_hessian":[4.563573E7,2.0683984E7,2.4951742E7,2.0643534E7,4.045116E4,1.0775117E7,1.4176626E7,9.894091E6,1.0749442E7,1.3273648E4,2.7177512E4,1.0752657E7,2.2459582E4,4.7654694E5,1.3700079E7,8.076919E6,1.8171725E6,3.746126E6,7.0033165E6,6.504389E3,6.76926E3,7.1224473E3,2.0055064E4,9.967054E6,7.856029E5,2.0047434E4,2.412147E3,4.729669E5,3.580029E3,1.2393618E7,1.3064618E6,8.063307E6,1.3611711E4,6.9799675E5,1.1191756E6,1.4139406E5,3.604732E6,6.9008585E6,1.02457625E5,2.5883599E3,3.9160295E3,5.4033105E3,1.3659493E3,6.8812915E3,2.4115593E2,1.9612533E4,4.4253073E2,9.918751E6,4.8302777E4,7.773386E5,8.264294E3,9.084932E3,1.0962502E4,1.6639742E3,7.4817267E2,4.1755956E5,5.540736E4,2.4455916E3,1.1344374E3,7.851617E6,4.5420005E6,1.2960971E6,1.0364591E4,2.0615328E6,6.0017745E6,1.3401547E4,2.1016351E2,1.7278902E5,5.2520775E5,5.2239272E5,5.9678294E5,1.8238527E4,1.2315554E5,3.3310842E6,2.7364788E5,7.6819414E4,6.824039E6,9.157765E4,1.0879975E4,7.1885254E2,1.8695072E3,5.774702E2,3.3385593E3,2.7136572E3,2.689653E3,9.843626E2,3.8158676E2,4.524534E3,2.3567573E3,5.5070168E1,1.8608575E2,9.883432E3,9.729103E3,3.4122745E2,1.0130329E2,1.8697254E6,8.049026E6,2.2711166E4,2.5591611E4,3.54522E5,4.228166E5,8.052577E3,2.1171652E2,1.8489489E3,7.235983E3,9.191916E3,1.7705867E3,3.7878854E2,1.2851858E3,4.9101273E2,2.5715994E2,2.1208917E5,2.0547039E5,2.9195354E4,2.6212004E4,1.6556624E3,7.899292E2,7.6921625E2,3.652212E2,3.1393515E6,4.7122655E6,3.6176358E6,9.243647E5,5.93462E5,7.026351E5,7.1260776E3,3.2385137E3],"tree_param":{"num_deleted":"0","num_feature":"82","num_nodes":"127","size_leaf_vector":"1"}},{"base_weights":[-7.073729E-5,2.7332213E-2,-1.7655129E-2,2.5796814E-2,3.5997984E-1,4.715024E-3,-3.3838194E-2,4.760462E-2,7.7114776E-3,3.1798363E-1,1.7287613E0,4.2216917E-3,8.595941E-1,4.361816E-2,-3.88483E-2,2.8995094E-1,4.510111E-2,4.887135E-3,2.3522265E-1,2.4740088E-1,7.843814E-1,6.8078697E-1,2.7570524E0,7.841471E-3,-6.3248165E-2,3.8778266E-1,2.5398142E0,5.264225E-2,-1.7818221E-1,-3.3451483E-2,-9.69626E-2,1.7342287E-1,1.1715167E0,5.1249493E-2,7.52486E-3,1.5769253E-2,-1.8847294E-2,6.2682873E-1,2.1521002E-1,2.7993187E-1,-3.097475E-1,6.478705E-1,2.459587E0,1.6539032E0,2.4960813E-1,3.0621018E0,6.7977434E-1,7.1097654E-3,2.4586415E-1,8.1456226E-1,-6.537916E-2,4.761107E-2,1.102491E0,1.4650475E0,4.1202126E0,8.2760006E-2,-1.5268768E-3,-4.743365E-1,-1.1573957E-1,-2.636522E-2,-6.282495E-2,-9.371349E-2,-4.7779807E-1,6.0914825E-3,1.3661719E-3,2.3571713E-2,7.0125083E-3,1.7579461E-3,6.205216E-4,-2.5337352E-4,5.037295E-4,2.3896231E-4,-5.1101105E-4,-2.2766374E-4,-8.068743E-3,4.8355847E-3,1.3011557E-2,3.505094E-3,1.5081615E-3,1.0021785E-2,3.1296094E-3,-1.1535264E-2,2.1042982E-3,5.0090984E-3,1.1458775E-2,1.3873215E-2,4.18944E-2,3.1062463E-2,1.2127868E-2,1.8029217E-2,4.7963962E-4,1.9021729E-2,4.4206567E-2,-5.518784E-3,4.5013476E-2,4.7934233E-4,2.0464458E-5,2.337935E-2,2.1088256E-3,4.018507E-3,4.3013483E-2,-1.2409547E-3,-2.9666914E-4,-7.921655E-4,8.212101E-3,3.3772677E-2,1.0704564E-2,3.9022345E-2,8.978779E-3,4.461654E-2,5.6971177E-2,1.351707E-3,-8.347779E-5,-7.413044E-3,2.82704E-5,-6.230436E-3,4.9919557E-2,-1.074625E-3,-6.863977E-3,-1.726639E-4,-4.4302098E-4,-7.5285765E-4,-3.2233603E-3,-1.6587062E-3,-8.858351E-4,-2.4177113E-3,-1.06446305E-2],"categories":[],"categories_nodes":[],"categories_segments":[],"categories_sizes":[],"default_left":[0,0,0,0,0,0,0,0,0,1,0,0,0,0,1,0,0,0,0,0,0,0,1,0,0,1,0,1,1,0,0,0,1,0,0,1,0,0,1,0,0,0,0,0,0,0,0,0,0,0,0,0,0,0,0,1,0,0,0,0,0,0,0,0,0,0,0,0,0,0,0,0,0,0,0,0,0,0,0,0,0,0,0,0,0,0,0,0,0,0,0,0,0,0,0,0,0,0,0,0,0,0,0,0,0,0,0,0,0,0,0,0,0,0,0,0,0,0,0,0,0,0,0,0,0,0,0],"id":7,"left_children":[1,3,5,7,9,11,13,15,17,19,21,23,25,27,29,31,33,35,37,39,41,43,45,47,49,51,53,55,57,59,61,63,65,67,69,71,73,75,77,79,81,83,85,87,89,91,93,95,97,99,101,103,105,107,109,111,113,115,117,119,121,123,125,-1,-1,-1,-1,-1,-1,-1,-1,-1,-1,-1,-1,-1,-1,-1,-1,-1,-1,-1,-1,-1,-1,-1,-1,-1,-1,-1,-1,-1,-1,-1,-1,-1,-1,-1,-1,-1,-1,-1,-1,-1,-1,-1,-1,-1,-1,-1,-1,-1,-1,-1,-1,-1,-1,-1,-1,-1,-1,-1,-1,-1,-1,-1,-1],"loss_changes":[2.1989404E4,9.110192E3,1.0062961E4,7.0026777E3,4.709117E3,4.9207363E3,6.259051E3,4.8835234E3,6.2367417E3,2.6169688E3,2.622519E3,2.8479775E3,5.331544E3,1.9612891E3,4.7511914E3,8.453692E3,1.8406162E3,2.4761345E3,9.3223535E2,1.2520708E3,2.385021E3,5.0699683E2,7.7318555E2,1.927505E3,1.1107727E3,1.2778892E3,2.487543E3,1.536147E3,7.082036E2,2.8852793E3,1.5926465E3,1.4646333E3,4.128409E3,1.2097207E3,1.0046982E3,1.1832914E3,1.4585955E3,5.693113E2,6.809165E2,1.0606069E3,1.1012319E3,6.317534E2,9.137627E2,2.013501E2,2.1031529E2,7.272754E2,5.257011E2,1.8722567E3,4.284457E3,1.8490714E3,8.2042236E2,2.3813574E2,6.697283E2,1.0766757E3,9.292676E1,1.3262017E3,7.445034E2,6.0098035E2,4.1317938E2,1.2436396E3,1.5984629E3,1.1332617E3,1.1420125E3,0E0,0E0,0E0,0E0,0E0,0E0,0E0,0E0,0E0,0E0,0E0,0E0,0E0,0E0,0E0,0E0,0E0,0E0,0E0,0E0,0E0,0E0,0E0,0E0,0E0,0E0,0E0,0E0,0E0,0E0,0E0,0E0,0E0,0E0,0E0,0E0,0E0,0E0,0E0,0E0,0E0,0E0,0E0,0E0,0E0,0E0,0E0,0E0,0E0,0E0,0E0,0E0,0E0,0E0,0E0,0E0,0E0,0E0,0E0,0E0,0E0,0E0,0E0,0E0],"parents":[2147483647,0,0,1,1,2,2,3,3,4,4,5,5,6,6,7,7,8,8,9,9,10,10,11,11,12,12,13,13,14,14,15,15,16,16,17,17,18,18,19,19,20,20,21,21,22,22,23,23,24,24,25,25,26,26,27,27,28,28,29,29,30,30,31,31,32,32,33,33,34,34,35,35,36,36,37,37,38,38,39,39,40,40,41,41,42,42,43,43,44,44,45,45,46,46,47,47,48,48,49,49,50,50,51,51,52,52,53,53,54,54,55,55,56,56,57,57,58,58,59,59,60,60,61,61,62,62],"right_children":[2,4,6,8,10,12,14,16,18,20,22,24,26,28,30,32,34,36,38,40,42,44,46,48,50,52,54,56,58,60,62,64,66,68,70,72,74,76,78,80,82,84,86,88,90,92,94,96,98,100,102,104,106,108,110,112,114,116,118,120,122,124,126,-1,-1,-1,-1,-1,-1,-1,-1,-1,-1,-1,-1,-1,-1,-1,-1,-1,-1,-1,-1,-1,-1,-1,-1,-1,-1,-1,-1,-1,-1,-1,-1,-1,-1,-1,-1,-1,-1,-1,-1,-1,-1,-1,-1,-1,-1,-1,-1,-1,-1,-1,-1,-1,-1,-1,-1,-1,-1,-1,-1,-1,-1,-1,-1],"split_conditions":[-2.945646E-1,3.2892478E0,-9.402858E-2,-1.9707732E-1,3.4541535E0,4.1625525E2,4.6E1,-2.394358E0,1.4708829E2,1.3938184E0,1.6587574E0,1.622131E0,7.6016563E-1,6.5692776E-1,1.3428653E0,2.1850336E0,8.68E2,6.399012E-1,-4.7008237E-1,3.6053739E0,4.3390358E1,-2.9365242E-1,5.1217313E0,3.2892478E0,-2.0355616E0,-5.2776635E-1,2.338783E0,-1.190922E-1,-2.3120313E0,9.5713866E-1,2.4395385E0,-2.7622414E-1,-7.9158574E-2,-2.4765513E0,1.3363085E-2,1.6614504E0,4.1625525E2,9.827274E-1,6.863992E-1,-1.7334446E0,2.57E2,-4.0186293E-2,3.3738217E0,-1.8241966E-1,-7.723512E-1,1.3065227E0,4E0,-1.1058816E0,-2.9194447E-1,2.5421722E0,-2.1695553E-1,3.5547334E-1,1.59E2,-7.2564805E-1,3.3738217E0,6.238914E-1,-1.1550784E0,2.3232915E0,1.9563991E0,-3.1057176E-1,2.4395385E0,-5.6602407E-1,2.0571582E0,6.0914825E-3,1.3661719E-3,2.3571713E-2,7.0125083E-3,1.7579461E-3,6.205216E-4,-2.5337352E-4,5.037295E-4,2.3896231E-4,-5.1101105E-4,-2.2766374E-4,-8.068743E-3,4.8355847E-3,1.3011557E-2,3.505094E-3,1.5081615E-3,1.0021785E-2,3.1296094E-3,-1.1535264E-2,2.1042982E-3,5.0090984E-3,1.1458775E-2,1.3873215E-2,4.18944E-2,3.1062463E-2,1.2127868E-2,1.8029217E-2,4.7963962E-4,1.9021729E-2,4.4206567E-2,-5.518784E-3,4.5013476E-2,4.7934233E-4,2.0464458E-5,2.337935E-2,2.1088256E-3,4.018507E-3,4.3013483E-2,-1.2409547E-3,-2.9666914E-4,-7.921655E-4,8.212101E-3,3.3772677E-2,1.0704564E-2,3.9022345E-2,8.978779E-3,4.461654E-2,5.6971177E-2,1.351707E-3,-8.347779E-5,-7.413044E-3,2.82704E-5,-6.230436E-3,4.9919557E-2,-1.074625E-3,-6.863977E-3,-1.726639E-4,-4.4302098E-4,-7.5285765E-4,-3.2233603E-3,-1.6587062E-3,-8.858351E-4,-2.4177113E-3,-1.06446305E-2],"split_indices":[7,63,39,39,19,80,1,39,18,80,37,69,63,73,69,60,1,39,60,11,11,74,80,63,36,18,38,36,58,39,39,74,49,7,40,69,80,37,36,36,1,24,18,25,29,18,13,59,74,20,11,63,1,33,18,80,60,26,25,59,39,11,60,0,0,0,0,0,0,0,0,0,0,0,0,0,0,0,0,0,0,0,0,0,0,0,0,0,0,0,0,0,0,0,0,0,0,0,0,0,0,0,0,0,0,0,0,0,0,0,0,0,0,0,0,0,0,0,0,0,0,0,0,0,0,0,0],"split_type":[0,0,0,0,0,0,0,0,0,0,0,0,0,0,0,0,0,0,0,0,0,0,0,0,0,0,0,0,0,0,0,0,0,0,0,0,0,0,0,0,0,0,0,0,0,0,0,0,0,0,0,0,0,0,0,0,0,0,0,0,0,0,0,0,0,0,0,0,0,0,0,0,0,0,0,0,0,0,0,0,0,0,0,0,0,0,0,0,0,0,0,0,0,0,0,0,0,0,0,0,0,0,0,0,0,0,0,0,0,0,0,0,0,0,0,0,0,0,0,0,0,0,0,0,0,0,0],"sum_hessian":[4.5634028E7,1.783716E7,2.7796866E7,1.7755212E7,8.194914E4,1.1667987E7,1.6128879E7,8.0492225E6,9.705989E6,7.951308E4,2.4360642E3,1.166126E7,6.726528E3,9.7987906E5,1.5149E7,8.2297E4,7.9669255E6,9.586979E6,1.1901018E5,6.90655E4,1.0447578E4,1.2088308E3,1.2272334E3,1.106749E7,5.9377006E5,5.2545303E3,1.4719974E3,9.4157325E5,3.830583E4,1.3861729E7,1.2872708E6,7.2691836E4,9.605165E3,6.8466445E6,1.1202809E6,6.5732035E6,3.0137752E6,5.7818037E3,1.13228375E5,6.525686E4,3.8086396E3,9.663994E3,7.8358386E2,3.686569E2,8.401739E2,1.0688904E3,1.5834299E2,1.1033575E7,3.391491E4,1.4352552E3,5.923348E5,3.5622031E3,1.6923271E3,8.7939E2,5.926074E2,6.051267E5,3.364466E5,6.66668E3,3.1639146E4,1.116759E7,2.6941398E6,1.276385E6,1.0885737E4,1.2594994E4,6.009684E4,4.491828E3,5.113337E3,1.5181655E5,6.694828E6,6.050695E5,5.1521128E5,6.22026E6,3.5294353E5,3.010007E6,3.7683362E3,3.6196938E3,2.16211E3,6.823501E4,4.499337E4,3.7598328E3,6.1497027E4,1.6763821E3,2.1322576E3,4.94185E3,4.722144E3,3.074197E2,4.7616415E2,1.6624852E2,2.0240839E2,1.2508539E2,7.150885E2,2.4147635E2,8.27414E2,1.15881195E2,4.246179E1,1.6619291E6,9.371646E6,1.5740197E3,3.2340889E4,1.2080608E3,2.2719444E2,3.3064256E5,2.6169222E5,3.0134185E3,5.4878467E2,2.300418E2,1.4622854E3,2.7472507E2,6.04665E2,2.5383762E2,3.387698E2,4.7487066E5,1.3025602E5,2.1454983E3,3.343011E5,6.639032E3,2.7648201E1,2.9545613E4,2.093533E3,4.577597E6,6.5899925E6,2.6519005E6,4.2239098E4,4.871066E5,7.8927844E5,6.1214697E3,4.764268E3],"tree_param":{"num_deleted":"0","num_feature":"82","num_nodes":"127","size_leaf_vector":"1"}},{"base_weights":[-8.278461E-5,2.7722117E-2,-1.6775116E-2,2.4430789E-2,2.3059724E-1,-1.1926532E-2,-7.402348E-2,4.2529657E-2,9.609919E-3,9.812963E-1,1.9138491E-1,2.8540124E-3,-2.5299706E-2,-4.3783475E-2,-1.23282745E-1,4.174999E-2,8.741819E-1,1.7859358E-2,-3.7068136E-2,7.2754407E-1,2.978399E0,1.5105015E-1,4.031831E-1,2.2959227E-3,6.228564E-1,-3.2518234E-2,3.9383075E-3,-4.700973E-2,7.117452E-1,-1.1734061E-1,-5.000938E-1,3.6797073E-2,1.0526482E-1,3.0120058E0,5.322333E-1,1.5960488E-1,1.5013708E-2,-3.564598E-2,-8.9230156E-1,1.696448E0,2.2399475E-1,3.2824364E0,2.9647416E-1,9.1419525E-2,2.7211604E-1,3.0773994E-1,8.9121085E-1,-1.8855602E-1,3.3224442E-3,3.4368154E-1,3.0199332E0,-1.9579865E-2,-5.2736863E-2,6.626527E-3,-1.4536637E-1,-3.294808E-2,-7.7470765E-2,1.7027546E0,3.1933728E-1,-7.658891E-2,-1.5102662E-1,-5.6024176E-1,2.2629144E0,2.0696525E-3,4.395237E-4,1.8736074E-3,4.5640688E-4,1.2509408E-2,4.8107553E-2,1.5390186E-2,3.9351503E-3,1.7493223E-3,8.219637E-3,4.0243613E-4,6.0718136E-5,-1.6709692E-4,-7.4030797E-4,-1.7979879E-2,-7.138371E-3,4.044458E-2,1.687773E-2,-2.9961832E-3,1.0089747E-2,4.894114E-2,3.412573E-2,1.9109484E-2,-1.5110797E-2,6.355258E-4,3.379672E-3,1.2323986E-3,4.8852544E-3,3.7660252E-3,2.817791E-2,1.811739E-3,1.2992914E-2,-3.406193E-3,8.5801136E-4,1.9681275E-4,-1.7173224E-4,1.6472455E-2,1.8531235E-3,4.619066E-2,1.1667238E-2,-2.5246304E-4,8.48412E-3,-5.428911E-4,-1.6079204E-3,6.127981E-5,2.3577842E-3,-6.444609E-3,-1.5546358E-3,-2.0748952E-4,-7.2671176E-4,-1.3275221E-3,-3.6921407E-4,1.6448596E-2,3.7158284E-2,1.346002E-3,9.024937E-3,-1.0809246E-3,9.680623E-4,-1.3441537E-3,-2.2429586E-3,-3.8689794E-3,-1.3624047E-2,-2.3865257E-3,3.8601596E-2],"categories":[],"categories_nodes":[],"categories_segments":[],"categories_sizes":[],"default_left":[0,0,1,0,0,0,0,0,0,0,1,0,0,0,0,0,0,0,0,0,0,0,0,0,1,0,0,0,0,0,0,0,0,0,0,0,0,0,0,0,0,1,0,1,0,0,0,0,0,0,0,0,0,1,0,0,0,0,0,0,0,0,0,0,0,0,0,0,0,0,0,0,0,0,0,0,0,0,0,0,0,0,0,0,0,0,0,0,0,0,0,0,0,0,0,0,0,0,0,0,0,0,0,0,0,0,0,0,0,0,0,0,0,0,0,0,0,0,0,0,0,0,0,0,0,0,0],"id":8,"left_children":[1,3,5,7,9,11,13,15,17,19,21,23,25,27,29,31,33,35,37,39,41,43,45,47,49,51,53,55,57,59,61,63,65,67,69,71,73,75,77,79,81,83,85,87,89,91,93,95,97,99,101,103,105,107,109,111,113,115,117,119,121,123,125,-1,-1,-1,-1,-1,-1,-1,-1,-1,-1,-1,-1,-1,-1,-1,-1,-1,-1,-1,-1,-1,-1,-1,-1,-1,-1,-1,-1,-1,-1,-1,-1,-1,-1,-1,-1,-1,-1,-1,-1,-1,-1,-1,-1,-1,-1,-1,-1,-1,-1,-1,-1,-1,-1,-1,-1,-1,-1,-1,-1,-1,-1,-1,-1],"loss_changes":[2.1178422E4,1.1429762E4,7.914453E3,4.518295E3,8.043468E3,5.19591E3,3.316296E3,4.9169854E3,3.5660103E3,6.867674E3,2.2183994E3,4.320406E3,2.9126514E3,3.3625298E3,1.8959053E3,2.383371E3,5.187209E3,3.1743572E3,1.6914521E3,5.872505E3,1.2430205E3,1.574877E3,1.9341816E3,2.4440237E3,7.5112983E3,2.8952988E3,1.0967228E3,5.883428E2,2.2792595E3,1.144417E3,2.188023E3,1.7148027E3,1.6434951E3,1.5818799E3,9.273528E2,1.5847688E3,1.3312504E3,7.182411E2,3.9963843E2,2.211371E3,2.1114907E3,4.4404395E2,2.9473834E2,1.0590759E3,1.4505269E3,5.909402E2,7.102324E2,1.400815E3,2.5867634E3,1.9054656E3,1.5739639E3,2.1366003E3,3.1206416E3,8.541649E2,3.886944E2,3.8297693E2,5.8274023E2,8.122881E2,3.5441388E2,5.324778E2,5.461367E2,1.6963992E3,5.5291345E2,0E0,0E0,0E0,0E0,0E0,0E0,0E0,0E0,0E0,0E0,0E0,0E0,0E0,0E0,0E0,0E0,0E0,0E0,0E0,0E0,0E0,0E0,0E0,0E0,0E0,0E0,0E0,0E0,0E0,0E0,0E0,0E0,0E0,0E0,0E0,0E0,0E0,0E0,0E0,0E0,0E0,0E0,0E0,0E0,0E0,0E0,0E0,0E0,0E0,0E0,0E0,0E0,0E0,0E0,0E0,0E0,0E0,0E0,0E0,0E0,0E0,0E0,0E0,0E0],"parents":[2147483647,0,0,1,1,2,2,3,3,4,4,5,5,6,6,7,7,8,8,9,9,10,10,11,11,12,12,13,13,14,14,15,15,16,16,17,17,18,18,19,19,20,20,21,21,22,22,23,23,24,24,25,25,26,26,27,27,28,28,29,29,30,30,31,31,32,32,33,33,34,34,35,35,36,36,37,37,38,38,39,39,40,40,41,41,42,42,43,43,44,44,45,45,46,46,47,47,48,48,49,49,50,50,51,51,52,52,53,53,54,54,55,55,56,56,57,57,58,58,59,59,60,60,61,61,62,62],"right_children":[2,4,6,8,10,12,14,16,18,20,22,24,26,28,30,32,34,36,38,40,42,44,46,48,50,52,54,56,58,60,62,64,66,68,70,72,74,76,78,80,82,84,86,88,90,92,94,96,98,100,102,104,106,108,110,112,114,116,118,120,122,124,126,-1,-1,-1,-1,-1,-1,-1,-1,-1,-1,-1,-1,-1,-1,-1,-1,-1,-1,-1,-1,-1,-1,-1,-1,-1,-1,-1,-1,-1,-1,-1,-1,-1,-1,-1,-1,-1,-1,-1,-1,-1,-1,-1,-1,-1,-1,-1,-1,-1,-1,-1,-1,-1,-1,-1,-1,-1,-1,-1,-1,-1,-1,-1,-1],"split_conditions":[-3.394074E-1,2.5713882E0,1.3691546E0,-3.6818537E-1,-1.2515085E0,-3.227108E-3,4.8396498E-1,3.3919257E2,1.0663158E0,2.5140595E0,1.2343372E0,3.3919257E2,7.272734E-1,3.3919257E2,3.3919257E2,1.566397E-1,1.4E2,3.8E1,3.6433405E2,-4.0896776E-1,1.639765E0,-2.2612903E-1,2.7813842E0,-3.6471133E0,2.0803294E0,3.0216676E-1,3.3178725E0,8.87E2,-1.3786902E0,2.6631296E-1,3.381163E0,-2.6880898E0,-9.775854E-2,8.116478E-1,-1.4808011E0,2.5002618E0,-3.249683E-2,8.19E2,1.0534293E-1,1.7E2,1.24612205E-1,-1.8605189E0,1.7879742E0,2.2367053E0,2.743108E-1,3.044941E0,-1.0218004E-1,1.1772861E0,1.8319828E-2,-4.0896776E-1,-9.9386466E-1,3.3919257E2,-2.5906468E-2,3.1908574E0,-2.5373874E0,-1.0706698E-2,-2.3295772E-1,4.0361688E-1,1.6757016E0,1.8624755E0,8.16E2,3.3578072E0,-2.1270404E0,2.0696525E-3,4.395237E-4,1.8736074E-3,4.5640688E-4,1.2509408E-2,4.8107553E-2,1.5390186E-2,3.9351503E-3,1.7493223E-3,8.219637E-3,4.0243613E-4,6.0718136E-5,-1.6709692E-4,-7.4030797E-4,-1.7979879E-2,-7.138371E-3,4.044458E-2,1.687773E-2,-2.9961832E-3,1.0089747E-2,4.894114E-2,3.412573E-2,1.9109484E-2,-1.5110797E-2,6.355258E-4,3.379672E-3,1.2323986E-3,4.8852544E-3,3.7660252E-3,2.817791E-2,1.811739E-3,1.2992914E-2,-3.406193E-3,8.5801136E-4,1.9681275E-4,-1.7173224E-4,1.6472455E-2,1.8531235E-3,4.619066E-2,1.1667238E-2,-2.5246304E-4,8.48412E-3,-5.428911E-4,-1.6079204E-3,6.127981E-5,2.3577842E-3,-6.444609E-3,-1.5546358E-3,-2.0748952E-4,-7.2671176E-4,-1.3275221E-3,-3.6921407E-4,1.6448596E-2,3.7158284E-2,1.346002E-3,9.024937E-3,-1.0809246E-3,9.680623E-4,-1.3441537E-3,-2.2429586E-3,-3.8689794E-3,-1.3624047E-2,-2.3865257E-3,3.8601596E-2],"split_indices":[7,61,69,10,55,51,10,78,69,19,81,78,62,78,78,20,1,1,81,10,26,41,52,61,20,10,72,1,45,26,20,7,72,38,10,78,51,1,28,1,64,45,22,55,8,25,71,25,50,10,55,78,33,61,60,10,41,68,53,55,1,10,31,0,0,0,0,0,0,0,0,0,0,0,0,0,0,0,0,0,0,0,0,0,0,0,0,0,0,0,0,0,0,0,0,0,0,0,0,0,0,0,0,0,0,0,0,0,0,0,0,0,0,0,0,0,0,0,0,0,0,0,0,0,0,0,0],"split_type":[0,0,0,0,0,0,0,0,0,0,0,0,0,0,0,0,0,0,0,0,0,0,0,0,0,0,0,0,0,0,0,0,0,0,0,0,0,0,0,0,0,0,0,0,0,0,0,0,0,0,0,0,0,0,0,0,0,0,0,0,0,0,0,0,0,0,0,0,0,0,0,0,0,0,0,0,0,0,0,0,0,0,0,0,0,0,0,0,0,0,0,0,0,0,0,0,0,0,0,0,0,0,0,0,0,0,0,0,0,0,0,0,0,0,0,0,0,0,0,0,0,0,0,0,0,0,0],"sum_hessian":[4.5630496E7,1.7117452E7,2.8513044E7,1.6844186E7,2.7326644E5,2.6286726E7,2.226319E6,7.583453E6,9.260732E6,1.3561868E4,2.5970456E5,1.2486338E7,1.3800387E7,1.3794746E6,8.468443E5,7.5763535E6,7.099698E3,7.8698865E6,1.3908454E6,1.2036375E4,1.5254923E3,2.1816302E5,4.1541547E4,1.2475112E7,1.1226378E4,1.1067863E7,2.732524E6,1.3736118E6,5.862828E3,8.337012E5,1.3143114E4,7.02829E6,5.480634E5,9.759732E2,6.123725E3,1.548808E5,7.715006E6,1.3885394E6,2.3059456E3,4.1138643E3,7.922511E3,1.3695636E3,1.5592871E2,1.4617223E5,7.199079E4,3.475025E4,6.7912964E3,6.673666E4,1.2408375E7,1.0058183E4,1.1681954E3,6.749021E6,4.3188425E6,2.6841985E6,4.8325316E4,9.397891E5,4.3382262E5,1.6602783E3,4.20255E3,3.7728853E5,4.5641266E5,1.2865309E4,2.7780597E2,1.039864E5,6.9243035E6,3.364184E5,2.1164494E5,2.8026086E2,6.9571234E2,1.4781427E3,4.6455825E3,1.4862012E5,6.2606714E3,2.900127E6,4.814879E6,7.053281E5,6.8321125E5,8.693405E2,1.4366049E3,7.807895E2,3.3330747E3,4.400642E3,3.5218691E3,6.607032E2,7.088604E2,8.589918E1,7.0029526E1,1.18670766E5,2.7501465E4,2.8709102E4,4.3281684E4,3.459479E4,1.5545996E2,1.0722473E3,5.719049E3,5.0610895E4,1.6125762E4,7.1914395E6,5.2169355E6,1.7016066E3,8.356576E3,8.9113434E2,2.7706107E2,6.744577E6,4.444217E3,3.8257695E6,4.9307284E5,2.6582375E6,2.5961156E4,2.73345E3,4.5591867E4,5.639382E5,3.7585097E5,2.7474572E5,1.5907689E5,1.2633303E3,3.9694797E2,2.7396155E3,1.4629344E3,3.559485E5,2.1340047E4,1.7267048E5,2.8374216E5,8.6612705E3,4.204038E3,6.886423E1,2.0894173E2],"tree_param":{"num_deleted":"0","num_feature":"82","num_nodes":"127","size_leaf_vector":"1"}},{"base_weights":[4.8486134E-5,2.8272796E-2,-2.335587E-2,5.3850487E-2,1.3684377E-2,-2.4698928E-3,-4.3404825E-2,5.156623E-2,6.010862E-1,3.5642847E-2,2.7526247E-3,-3.8668052E-3,3.003484E-1,9.202025E-2,-4.8583258E-2,4.0989462E-2,9.502028E-2,1.8555543E0,2.6559755E-1,-9.7086385E-2,3.9014712E-2,-2.0519163E-1,3.5143164E-3,1.7694626E-2,-1.739078E-2,1.4844656E0,1.7947291E-1,1.0035748E-1,-5.677102E-1,-3.585148E-2,-7.757061E-2,4.0634796E-2,2.7874322E0,1.3125849E-1,7.0916526E-2,2.5313044E0,1.0049843E0,2.3319013E-1,1.175533E0,-2.354579E-1,-5.2070163E-2,3.392996E-2,9.698753E-2,-1.5220879E-1,-5.9472334E-1,8.877856E-3,-2.3925057E-2,6.716879E-3,4.5715656E-2,-8.296712E-3,-6.385713E-2,2.8597143E0,9.1304296E-1,1.0056678E-1,4.9368462E-1,6.294882E-2,2.102733E-1,-2.1997906E-1,-1.7535126E0,-2.9136073E-2,-6.674207E-2,-7.308024E-2,-2.8339517E-1,4.9132516E-4,2.5404156E-3,1.7735345E-2,4.5281485E-2,7.5106183E-4,1.8985709E-3,7.269012E-4,1.3291036E-3,-3.0874396E-3,3.4219485E-2,1.0164427E-3,1.7754491E-2,1.6656592E-3,5.93217E-3,2.9184511E-2,6.6759856E-3,-4.55388E-3,-1.2170568E-3,-1.428251E-3,-1.9023006E-5,3.9224408E-4,1.6102009E-3,3.2691445E-5,1.4387269E-3,-4.583943E-3,-1.3556707E-3,-9.706367E-3,1.1014387E-5,2.5378683E-4,-3.1695556E-5,-6.0569914E-4,2.048787E-5,8.3155945E-5,1.9652903E-2,6.008339E-4,-2.5219356E-3,-2.1806595E-4,4.8960943E-4,-1.436888E-3,-3.7329693E-4,5.6150104E-3,4.101962E-2,8.190153E-3,3.1939395E-2,2.2679314E-3,-4.913717E-4,3.8506016E-3,8.501328E-3,1.4644924E-3,-5.566142E-5,1.6725071E-3,4.548065E-3,-1.9434422E-3,-2.1680733E-2,-7.5761555E-3,-3.073577E-2,-1.6059326E-4,-4.6371119E-4,-6.0229027E-4,-1.6561192E-3,-7.328447E-4,-1.557084E-3,-7.2652847E-3,-2.0996411E-3],"categories":[],"categories_nodes":[],"categories_segments":[],"categories_sizes":[],"default_left":[0,0,0,1,0,1,0,0,1,0,0,0,1,0,1,1,0,0,0,1,0,0,0,0,0,0,0,0,0,0,0,1,1,0,0,0,0,0,0,0,0,0,0,0,1,0,0,1,0,0,0,0,0,0,1,0,1,0,0,1,0,0,1,0,0,0,0,0,0,0,0,0,0,0,0,0,0,0,0,0,0,0,0,0,0,0,0,0,0,0,0,0,0,0,0,0,0,0,0,0,0,0,0,0,0,0,0,0,0,0,0,0,0,0,0,0,0,0,0,0,0,0,0,0,0,0,0],"id":9,"left_children":[1,3,5,7,9,11,13,15,17,19,21,23,25,27,29,31,33,35,37,39,41,43,45,47,49,51,53,55,57,59,61,63,65,67,69,71,73,75,77,79,81,83,85,87,89,91,93,95,97,99,101,103,105,107,109,111,113,115,117,119,121,123,125,-1,-1,-1,-1,-1,-1,-1,-1,-1,-1,-1,-1,-1,-1,-1,-1,-1,-1,-1,-1,-1,-1,-1,-1,-1,-1,-1,-1,-1,-1,-1,-1,-1,-1,-1,-1,-1,-1,-1,-1,-1,-1,-1,-1,-1,-1,-1,-1,-1,-1,-1,-1,-1,-1,-1,-1,-1,-1,-1,-1,-1,-1,-1,-1],"loss_changes":[3.014406E4,7.718918E3,1.0446253E4,9.391785E3,3.1621362E3,5.168453E3,8.926326E3,3.4387969E3,1.3142406E4,1.9595181E3,1.3929774E3,3.5464624E3,8.0293325E3,2.57859E3,4.5245293E3,5.860828E3,1.2792959E3,3.7799277E3,7.258065E2,6.756025E2,1.258644E3,6.6208777E2,1.2896221E3,1.4420693E3,3.1583486E3,4.0757314E3,1.2620382E3,1.9034517E3,2.4111006E3,1.7670371E3,3.4577812E3,1.5891768E3,8.497378E2,8.1410156E2,4.021128E2,1.8824219E3,1.0909348E3,5.709275E2,6.198884E2,4.6557043E2,2.5359763E2,1.0314941E3,5.5889453E2,2.666034E2,4.019469E2,9.406841E2,8.8397144E2,6.128883E2,6.390486E2,2.6557805E3,2.1013926E3,1.4516553E3,1.5627896E3,4.5116428E2,3.4719458E2,1.2397544E3,1.3731499E3,4.4565533E2,1.0435227E3,8.7923145E2,1.8639834E3,2.7582559E3,2.7343032E3,0E0,0E0,0E0,0E0,0E0,0E0,0E0,0E0,0E0,0E0,0E0,0E0,0E0,0E0,0E0,0E0,0E0,0E0,0E0,0E0,0E0,0E0,0E0,0E0,0E0,0E0,0E0,0E0,0E0,0E0,0E0,0E0,0E0,0E0,0E0,0E0,0E0,0E0,0E0,0E0,0E0,0E0,0E0,0E0,0E0,0E0,0E0,0E0,0E0,0E0,0E0,0E0,0E0,0E0,0E0,0E0,0E0,0E0,0E0,0E0,0E0,0E0,0E0,0E0],"parents":[2147483647,0,0,1,1,2,2,3,3,4,4,5,5,6,6,7,7,8,8,9,9,10,10,11,11,12,12,13,13,14,14,15,15,16,16,17,17,18,18,19,19,20,20,21,21,22,22,23,23,24,24,25,25,26,26,27,27,28,28,29,29,30,30,31,31,32,32,33,33,34,34,35,35,36,36,37,37,38,38,39,39,40,40,41,41,42,42,43,43,44,44,45,45,46,46,47,47,48,48,49,49,50,50,51,51,52,52,53,53,54,54,55,55,56,56,57,57,58,58,59,59,60,60,61,61,62,62],"right_children":[2,4,6,8,10,12,14,16,18,20,22,24,26,28,30,32,34,36,38,40,42,44,46,48,50,52,54,56,58,60,62,64,66,68,70,72,74,76,78,80,82,84,86,88,90,92,94,96,98,100,102,104,106,108,110,112,114,116,118,120,122,124,126,-1,-1,-1,-1,-1,-1,-1,-1,-1,-1,-1,-1,-1,-1,-1,-1,-1,-1,-1,-1,-1,-1,-1,-1,-1,-1,-1,-1,-1,-1,-1,-1,-1,-1,-1,-1,-1,-1,-1,-1,-1,-1,-1,-1,-1,-1,-1,-1,-1,-1,-1,-1,-1,-1,-1,-1,-1,-1,-1,-1,-1,-1,-1,-1],"split_conditions":[-7.4589066E-2,-3.289369E-1,2.2605274E-2,3.1908574E0,-7.5323E-1,3.1908574E0,3.4E1,-3.3092076E-1,-1.0177528E0,-2.3312817E0,-3.6471133E0,-2.6628324E-1,-1.1166885E0,1.2047993E0,5.1438737E-1,3.4541535E0,-6.6132534E-1,-2.394358E0,3.4541535E0,-2.632964E0,1.579652E-1,3.3064587E0,7.78E2,-6.608095E-3,8.46E2,-1.9608285E0,3.5078807E0,4.776835E-1,9.5602655E-1,-2.8970048E-1,2.014546E0,2.0239542E0,3.670824E-1,-6.8304116E-1,6.355093E-1,8.84E2,-2.7210185E-1,3.174705E-1,-5.0867486E-1,-3.6471133E0,-5.3095434E-2,2.24036E0,-7.7859706E-1,-2.313426E-1,3.805655E-1,3.2815653E-1,3.3903167E-2,1.7347208E0,3.0525572E0,7.049888E-1,-2.5352898E-1,8.84E2,2.5140595E0,-4.6181342E-1,-2.3350414E-2,-9.907703E-1,1.5184762E-1,1.9043921E0,3.0525572E0,-5.869785E-1,7.6151353E-1,8.12E2,-1.2081821E0,4.9132516E-4,2.5404156E-3,1.7735345E-2,4.5281485E-2,7.5106183E-4,1.8985709E-3,7.269012E-4,1.3291036E-3,-3.0874396E-3,3.4219485E-2,1.0164427E-3,1.7754491E-2,1.6656592E-3,5.93217E-3,2.9184511E-2,6.6759856E-3,-4.55388E-3,-1.2170568E-3,-1.428251E-3,-1.9023006E-5,3.9224408E-4,1.6102009E-3,3.2691445E-5,1.4387269E-3,-4.583943E-3,-1.3556707E-3,-9.706367E-3,1.1014387E-5,2.5378683E-4,-3.1695556E-5,-6.0569914E-4,2.048787E-5,8.3155945E-5,1.9652903E-2,6.008339E-4,-2.5219356E-3,-2.1806595E-4,4.8960943E-4,-1.436888E-3,-3.7329693E-4,5.6150104E-3,4.101962E-2,8.190153E-3,3.1939395E-2,2.2679314E-3,-4.913717E-4,3.8506016E-3,8.501328E-3,1.4644924E-3,-5.566142E-5,1.6725071E-3,4.548065E-3,-1.9434422E-3,-2.1680733E-2,-7.5761555E-3,-3.073577E-2,-1.6059326E-4,-4.6371119E-4,-6.0229027E-4,-1.6561192E-3,-7.328447E-4,-1.557084E-3,-7.2652847E-3,-2.0996411E-3],"split_indices":[9,39,39,61,9,61,1,33,55,61,61,48,55,41,48,19,9,39,19,56,33,41,1,16,1,36,62,8,64,33,39,61,58,62,43,0,64,77,32,61,31,61,62,11,34,39,40,61,4,62,11,0,19,33,80,59,24,28,4,48,9,1,11,0,0,0,0,0,0,0,0,0,0,0,0,0,0,0,0,0,0,0,0,0,0,0,0,0,0,0,0,0,0,0,0,0,0,0,0,0,0,0,0,0,0,0,0,0,0,0,0,0,0,0,0,0,0,0,0,0,0,0,0,0,0,0,0],"split_type":[0,0,0,0,0,0,0,0,0,0,0,0,0,0,0,0,0,0,0,0,0,0,0,0,0,0,0,0,0,0,0,0,0,0,0,0,0,0,0,0,0,0,0,0,0,0,0,0,0,0,0,0,0,0,0,0,0,0,0,0,0,0,0,0,0,0,0,0,0,0,0,0,0,0,0,0,0,0,0,0,0,0,0,0,0,0,0,0,0,0,0,0,0,0,0,0,0,0,0,0,0,0,0,0,0,0,0,0,0,0,0,0,0,0,0,0,0,0,0,0,0,0,0,0,0,0,0],"sum_hessian":[4.563328E7,2.0686524E7,2.4946758E7,7.513385E6,1.3173139E7,1.2218332E7,1.2728425E7,7.4821565E6,3.1228604E4,4.378362E6,8.794777E6,1.2162231E7,5.6101688E4,4.687859E5,1.2259639E7,6.0174985E6,1.4646578E6,6.5866543E3,2.464195E4,1.0846978E5,4.269892E6,3.209405E4,8.762683E6,4.6880335E6,7.474197E6,5.193446E3,5.0908242E4,4.6293816E5,5.847759E3,8.518269E6,3.74137E6,6.0167245E6,7.741175E2,5.850545E5,8.796032E5,3.6673958E3,2.9192585E3,2.3798006E4,8.439432E2,2.6622549E4,8.1847234E4,3.9255882E6,3.4430394E5,2.8255064E4,3.838985E3,7.3299195E6,1.4327636E6,3.368407E6,1.3196268E6,6.2508335E6,1.2233632E6,1.521147E3,3.6722988E3,4.0693242E4,1.0214998E4,3.453929E5,1.1754525E5,4.524397E3,1.3233619E3,6.9971455E6,1.5211234E6,3.6614935E6,7.987659E4,5.956026E6,6.0698594E4,2.8838705E2,4.857304E2,1.2477055E5,4.6028397E5,6.3619925E5,2.4340397E5,2.284623E2,3.4389333E3,8.891396E2,2.030119E3,1.6703367E4,7.094638E3,3.0237772E2,5.415654E2,1.3957134E4,1.2665415E4,3.6997527E4,4.4849707E4,3.8119035E6,1.13684586E5,5.3062258E4,2.912417E5,4.9163003E3,2.3338766E4,2.9642954E3,8.746896E2,3.6858982E6,3.644021E6,7.366327E5,6.96131E5,3.3681558E6,2.513106E2,1.3091424E6,1.0484351E4,5.24806E6,1.00277356E6,4.9608903E5,7.2727425E5,2.1514961E2,1.3059973E3,3.1632458E3,5.0905304E2,2.5933984E4,1.4759258E4,5.0138354E3,5.2011626E3,1.9285881E5,1.525341E5,7.761464E4,3.993061E4,4.3375396E3,1.8685732E2,4.957959E2,8.2756604E2,2.229836E6,4.767309E6,1.176641E6,3.4448238E5,2.8265028E6,8.349908E5,2.2744861E4,5.713173E4],"tree_param":{"num_deleted":"0","num_feature":"82","num_nodes":"127","size_leaf_vector":"1"}},{"base_weights":[-4.2730953E-5,2.7388692E-2,-1.6510421E-2,2.415774E-2,2.2649474E-1,-1.1274238E-2,-6.7592755E-2,4.249423E-2,1.0190917E-2,1.6334423E0,1.9864956E-1,-1.1679532E-2,4.688043E-1,-4.1990556E-2,-1.1636843E-1,4.1720476E-2,8.6322737E-1,1.6600015E-2,-4.877882E-2,2.5163004E0,7.833472E-1,1.4493157E-1,3.392455E-1,1.5938863E-2,-1.8616438E-2,1.9883564E-1,2.7992127E0,-4.460023E-2,6.467088E-1,-1.1090585E-1,-4.8398262E-1,1.4051133E-1,3.7805624E-2,3.032657E0,5.32384E-1,1.7933393E-1,1.431787E-2,-1.4484649E-2,-7.371712E-2,1.5070097E0,3.2263987E0,6.395403E-1,2.3480725E0,1.0729748E-1,3.2187012E-1,3.1135863E-1,1.8246316E0,5.835452E-2,1.5602298E-3,-4.3796306E-3,-3.1306848E-2,1.1647596E0,4.062078E-2,3.1341703E0,7.972272E-1,-3.0381655E-2,-7.35287E-2,1.7839028E0,2.8334728E-1,-7.0894055E-2,-1.4416677E-1,1.6761105E0,-5.7498384E-1,7.924711E-4,2.5756576E-3,7.600129E-4,3.118506E-4,4.8213635E-2,1.8544788E-2,1.5055036E-2,3.8029314E-3,2.1275326E-3,2.0641068E-2,1.207257E-4,6.50804E-4,-3.4409194E-4,8.239484E-4,-1.9245647E-3,-6.477918E-4,2.6066648E-2,2.9746806E-3,4.9406093E-2,3.3578504E-2,3.468765E-3,1.4741867E-2,1.9469273E-3,3.7278336E-2,6.7214305E-3,1.1654698E-3,2.90683E-3,8.205536E-3,1.161326E-2,3.3179878E-3,2.7796417E-2,-6.886236E-4,4.5658776E-4,1.5955073E-3,-2.015785E-3,4.8965845E-5,-2.3111077E-5,-2.4215165E-3,-5.1855826E-4,3.0646483E-5,3.074587E-2,8.55132E-3,2.2584735E-3,-9.469856E-3,4.6352822E-2,2.7204596E-2,3.138096E-2,-6.337244E-4,-1.4617006E-4,-6.4312853E-4,-1.51246E-3,-3.7907055E-4,3.278268E-2,1.0489222E-2,1.5001965E-2,2.3830044E-3,-1.1416848E-3,1.5089114E-4,-2.4497397E-3,-1.3057058E-3,1.0424602E-2,4.3485593E-2,-5.422824E-3,-1.7738255E-2],"categories":[],"categories_nodes":[],"categories_segments":[],"categories_sizes":[],"default_left":[0,0,1,0,0,0,0,0,0,1,0,0,0,0,0,1,0,0,1,0,0,0,1,1,0,0,1,0,0,0,0,0,0,0,0,0,0,0,0,0,0,0,0,0,0,0,1,0,0,0,0,0,0,0,0,0,0,0,0,0,0,0,0,0,0,0,0,0,0,0,0,0,0,0,0,0,0,0,0,0,0,0,0,0,0,0,0,0,0,0,0,0,0,0,0,0,0,0,0,0,0,0,0,0,0,0,0,0,0,0,0,0,0,0,0,0,0,0,0,0,0,0,0,0,0,0,0],"id":10,"left_children":[1,3,5,7,9,11,13,15,17,19,21,23,25,27,29,31,33,35,37,39,41,43,45,47,49,51,53,55,57,59,61,63,65,67,69,71,73,75,77,79,81,83,85,87,89,91,93,95,97,99,101,103,105,107,109,111,113,115,117,119,121,123,125,-1,-1,-1,-1,-1,-1,-1,-1,-1,-1,-1,-1,-1,-1,-1,-1,-1,-1,-1,-1,-1,-1,-1,-1,-1,-1,-1,-1,-1,-1,-1,-1,-1,-1,-1,-1,-1,-1,-1,-1,-1,-1,-1,-1,-1,-1,-1,-1,-1,-1,-1,-1,-1,-1,-1,-1,-1,-1,-1,-1,-1,-1,-1,-1],"loss_changes":[2.0614686E4,1.1012497E4,7.627344E3,4.3141475E3,1.0708013E4,5.032542E3,3.3107617E3,4.6250586E3,3.6139082E3,3.9752617E3,2.0242822E3,4.9511465E3,1.3724011E4,3.1248513E3,1.8324023E3,2.814165E3,4.9185728E3,3.2030254E3,8.0165967E2,1.8499004E3,6.0448145E2,1.2913843E3,3.0676035E3,3.16399E3,3.7317563E3,2.9881968E3,1.5112871E3,7.1242773E2,2.7104087E3,1.1966914E3,2.6289688E3,1.3756753E3,2.057166E3,1.107582E3,9.0844446E2,1.8229731E3,1.5039839E3,4.0427698E2,9.565813E2,7.690237E2,5.646582E2,4.7859784E2,3.019475E2,1.00853406E3,1.0209016E3,2.1312695E3,9.789741E2,1.9832646E3,1.4557877E3,4.653419E3,3.6287207E3,1.7011289E3,1.8458652E3,1.0070078E3,4.719295E2,4.5059973E2,1.1532261E3,1.229856E3,4.2469812E2,6.669568E2,1.00035645E3,8.0632556E2,1.5423345E3,0E0,0E0,0E0,0E0,0E0,0E0,0E0,0E0,0E0,0E0,0E0,0E0,0E0,0E0,0E0,0E0,0E0,0E0,0E0,0E0,0E0,0E0,0E0,0E0,0E0,0E0,0E0,0E0,0E0,0E0,0E0,0E0,0E0,0E0,0E0,0E0,0E0,0E0,0E0,0E0,0E0,0E0,0E0,0E0,0E0,0E0,0E0,0E0,0E0,0E0,0E0,0E0,0E0,0E0,0E0,0E0,0E0,0E0,0E0,0E0,0E0,0E0,0E0,0E0],"parents":[2147483647,0,0,1,1,2,2,3,3,4,4,5,5,6,6,7,7,8,8,9,9,10,10,11,11,12,12,13,13,14,14,15,15,16,16,17,17,18,18,19,19,20,20,21,21,22,22,23,23,24,24,25,25,26,26,27,27,28,28,29,29,30,30,31,31,32,32,33,33,34,34,35,35,36,36,37,37,38,38,39,39,40,40,41,41,42,42,43,43,44,44,45,45,46,46,47,47,48,48,49,49,50,50,51,51,52,52,53,53,54,54,55,55,56,56,57,57,58,58,59,59,60,60,61,61,62,62],"right_children":[2,4,6,8,10,12,14,16,18,20,22,24,26,28,30,32,34,36,38,40,42,44,46,48,50,52,54,56,58,60,62,64,66,68,70,72,74,76,78,80,82,84,86,88,90,92,94,96,98,100,102,104,106,108,110,112,114,116,118,120,122,124,126,-1,-1,-1,-1,-1,-1,-1,-1,-1,-1,-1,-1,-1,-1,-1,-1,-1,-1,-1,-1,-1,-1,-1,-1,-1,-1,-1,-1,-1,-1,-1,-1,-1,-1,-1,-1,-1,-1,-1,-1,-1,-1,-1,-1,-1,-1,-1,-1,-1,-1,-1,-1,-1,-1,-1,-1,-1,-1,-1,-1,-1,-1,-1,-1],"split_conditions":[-3.394074E-1,2.5713882E0,1.2695737E0,-4.0060246E-1,-1.8947527E0,3.3919257E2,5.556191E-1,3.3919257E2,1.3428653E0,-8.566808E-1,1.0671041E0,-9.4521034E-1,2.5140595E0,3.3919257E2,3.3919257E2,-1.5079436E0,1.29E2,3.1E1,-2.0467876E-2,1.5332587E0,3.4541535E0,-3.5970066E-2,3.4541535E0,-5.642159E-1,7.20222E-2,-3.448692E-1,6.269753E-1,8.72E2,-1.6032853E0,2.6631296E-1,-1.9608285E0,1.386E3,-3.0154145E-1,1.2850653E-1,-1.4808011E0,2.9818504E0,8.9617115E-1,1.0839069E0,-9.149075E-1,2.7793294E-1,-6.2779886E-1,1.126657E0,1.038E3,8.75E2,1.9162852E0,-1.6545924E0,6.232945E-1,5.892501E-1,-3.6471133E0,2.2967668E0,7.046698E-1,-1.4690704E0,2.903996E0,-1.1943561E0,-2.7543348E-1,-6.828608E-2,-1.756408E-1,-1.2748488E0,-5.92528E-1,1.319762E0,-6.497631E-1,4.0361688E-1,2.1645E0,7.924711E-4,2.5756576E-3,7.600129E-4,3.118506E-4,4.8213635E-2,1.8544788E-2,1.5055036E-2,3.8029314E-3,2.1275326E-3,2.0641068E-2,1.207257E-4,6.50804E-4,-3.4409194E-4,8.239484E-4,-1.9245647E-3,-6.477918E-4,2.6066648E-2,2.9746806E-3,4.9406093E-2,3.3578504E-2,3.468765E-3,1.4741867E-2,1.9469273E-3,3.7278336E-2,6.7214305E-3,1.1654698E-3,2.90683E-3,8.205536E-3,1.161326E-2,3.3179878E-3,2.7796417E-2,-6.886236E-4,4.5658776E-4,1.5955073E-3,-2.015785E-3,4.8965845E-5,-2.3111077E-5,-2.4215165E-3,-5.1855826E-4,3.0646483E-5,3.074587E-2,8.55132E-3,2.2584735E-3,-9.469856E-3,4.6352822E-2,2.7204596E-2,3.138096E-2,-6.337244E-4,-1.4617006E-4,-6.4312853E-4,-1.51246E-3,-3.7907055E-4,3.278268E-2,1.0489222E-2,1.5001965E-2,2.3830044E-3,-1.1416848E-3,1.5089114E-4,-2.4497397E-3,-1.3057058E-3,1.0424602E-2,4.3485593E-2,-5.422824E-3,-1.7738255E-2],"split_indices":[7,61,69,10,36,78,10,78,69,55,78,59,19,78,78,11,1,1,24,63,19,41,19,68,10,10,55,1,36,26,36,0,72,15,10,11,63,63,11,10,49,74,0,0,16,45,34,71,61,75,63,45,10,41,67,10,11,45,49,63,11,68,36,0,0,0,0,0,0,0,0,0,0,0,0,0,0,0,0,0,0,0,0,0,0,0,0,0,0,0,0,0,0,0,0,0,0,0,0,0,0,0,0,0,0,0,0,0,0,0,0,0,0,0,0,0,0,0,0,0,0,0,0,0,0,0,0],"split_type":[0,0,0,0,0,0,0,0,0,0,0,0,0,0,0,0,0,0,0,0,0,0,0,0,0,0,0,0,0,0,0,0,0,0,0,0,0,0,0,0,0,0,0,0,0,0,0,0,0,0,0,0,0,0,0,0,0,0,0,0,0,0,0,0,0,0,0,0,0,0,0,0,0,0,0,0,0,0,0,0,0,0,0,0,0,0,0,0,0,0,0,0,0,0,0,0,0,0,0,0,0,0,0,0,0,0,0,0,0,0,0,0,0,0,0,0,0,0,0,0,0,0,0,0,0,0,0],"sum_hessian":[4.5634748E7,1.7118768E7,2.851598E7,1.6845418E7,2.7335184E5,2.5864728E7,2.6512528E6,7.283363E6,9.562054E6,5.301777E3,2.6805006E5,2.5842914E7,2.181428E4,1.7386488E6,9.126039E5,7.276506E6,6.8569272E3,8.624688E6,9.373659E5,2.598029E3,2.7037476E3,1.9395247E5,7.409758E4,5.187907E6,2.0655006E7,1.9552291E4,2.261988E3,1.7320882E6,6.5605894E3,8.9924544E5,1.3358422E4,2.773551E5,6.999151E6,9.0427734E2,5.95265E3,1.1927423E5,8.505414E6,3.946575E5,5.427084E5,1.0766252E3,1.5214038E3,2.4798296E3,2.2391797E2,1.5993922E5,3.4013258E4,7.273548E4,1.3621042E3,1.3134202E6,3.8744868E6,9.734415E6,1.0920592E7,2.7492551E3,1.6803035E4,1.9363756E3,3.2561252E2,1.1613066E6,5.7078156E5,1.5859437E3,4.9746455E3,4.082029E5,4.910425E5,5.3800775E2,1.2820414E4,1.25245664E5,1.5210942E5,2.569067E6,4.430084E6,5.9669617E2,3.0758115E2,1.533739E3,4.4189106E3,1.1842649E5,8.4773676E2,7.5478285E6,9.575857E5,3.400639E5,5.4593574E4,1.1945644E5,4.2325194E5,7.4533386E2,3.3129144E2,6.7246094E2,8.489428E2,1.4728936E3,1.0069362E3,4.955462E1,1.7436334E2,5.3646035E3,1.5457461E5,2.6643342E4,7.369917E3,5.3020996E3,6.7433375E4,1.1319391E3,2.3016508E2,9.920475E5,3.2137272E5,5.4990812E4,3.819496E6,9.604247E6,1.30168414E5,8.453103E6,2.4674882E6,7.555137E2,1.9937413E3,1.4302589E4,2.5004463E3,1.2374006E3,6.98975E2,1.0686222E2,2.1875029E2,6.0832775E5,5.529789E5,2.7566562E5,2.9511594E5,8.501555E2,7.3578827E2,4.6484323E2,4.5098022E3,3.297515E5,7.8451414E4,2.1923767E5,2.7180484E5,3.6677814E2,1.7122957E2,1.092745E4,1.8929647E3],"tree_param":{"num_deleted":"0","num_feature":"82","num_nodes":"127","size_leaf_vector":"1"}},{"base_weights":[1.48973295E-5,2.7064618E-2,-2.350229E-2,2.6154162E-2,4.9587378E-1,-2.3678686E-4,-4.086525E-2,4.725915E-2,1.16771E-2,1.6884484E0,9.596954E-2,-1.531284E-3,6.097095E-1,-4.4561975E-2,1.1894894E-1,3.7301525E-2,9.106962E-2,3.8131777E-2,2.1591894E-3,2.0157444E0,2.073584E-1,5.196333E-1,-1.886034E-1,3.9684186E-3,-5.7673305E-2,3.621034E-1,2.6511416E0,-3.111438E-2,-7.273046E-2,1.2860876E-1,-3.3483985E-1,3.8391646E-2,-1.2469627E-1,1.3681862E-1,6.771647E-2,3.129766E-2,1.02333635E-1,3.946168E-3,-9.651972E-2,1.0548545E0,2.79749E0,4.2227916E-2,1.9281245E0,3.485961E-1,1.3292634E0,-2.3128316E-1,2.06729E0,-7.099261E-4,5.2375995E-2,-6.239659E-2,1.8741937E-1,1.3677375E0,1.8613146E-1,-3.7226468E-1,2.8528228E0,-2.4436533E-2,-6.238522E-2,-7.0710175E-2,-6.018701E-1,1.9144562E-1,7.703934E-2,-2.3050178E-2,-1.858694E0,1.5609632E-3,4.583131E-4,-2.3878487E-3,7.79922E-4,8.1747945E-4,2.0328406E-3,1.3111206E-3,6.930208E-4,4.166264E-4,-2.2413176E-3,8.316427E-4,1.9100446E-3,3.068983E-5,1.2305604E-3,-9.375042E-4,-3.8073685E-3,1.9809898E-2,7.5301817E-3,3.1090364E-2,4.7659602E-2,-2.748856E-3,7.8282645E-3,1.0506638E-2,4.5653183E-2,1.2013855E-2,3.000026E-3,2.2050941E-2,-2.14051E-4,5.118756E-4,-4.8657437E-3,3.6906354E-2,-1.5660046E-2,4.1827455E-4,-1.1918235E-4,5.7168154E-4,3.4548359E-3,-1.1455261E-3,-3.613006E-4,1.4372752E-3,5.2992892E-3,1.150794E-2,3.8789812E-2,2.0700604E-2,1.4711727E-3,-8.929688E-3,4.591181E-2,4.35145E-2,2.0527469E-2,-9.046064E-5,-4.1723961E-4,-4.4306074E-4,-1.3259911E-3,-1.0499593E-3,-3.9717785E-4,-8.190058E-3,2.103353E-2,1.7345945E-3,3.2783116E-3,2.545569E-5,2.3430658E-3,1.0532924E-2,-1.290933E-3,-1.8513912E-3,-2.8445978E-2],"categories":[],"categories_nodes":[],"categories_segments":[],"categories_sizes":[],"default_left":[0,0,0,0,0,0,0,1,0,1,0,0,0,0,0,0,0,0,0,0,1,0,0,0,0,0,0,0,0,0,1,1,0,0,0,0,0,0,0,0,0,0,0,0,0,0,0,0,0,0,0,0,0,0,0,1,0,0,0,0,0,0,0,0,0,0,0,0,0,0,0,0,0,0,0,0,0,0,0,0,0,0,0,0,0,0,0,0,0,0,0,0,0,0,0,0,0,0,0,0,0,0,0,0,0,0,0,0,0,0,0,0,0,0,0,0,0,0,0,0,0,0,0,0,0,0,0],"id":11,"left_children":[1,3,5,7,9,11,13,15,17,19,21,23,25,27,29,31,33,35,37,39,41,43,45,47,49,51,53,55,57,59,61,63,65,67,69,71,73,75,77,79,81,83,85,87,89,91,93,95,97,99,101,103,105,107,109,111,113,115,117,119,121,123,125,-1,-1,-1,-1,-1,-1,-1,-1,-1,-1,-1,-1,-1,-1,-1,-1,-1,-1,-1,-1,-1,-1,-1,-1,-1,-1,-1,-1,-1,-1,-1,-1,-1,-1,-1,-1,-1,-1,-1,-1,-1,-1,-1,-1,-1,-1,-1,-1,-1,-1,-1,-1,-1,-1,-1,-1,-1,-1,-1,-1,-1,-1,-1,-1],"loss_changes":[2.9029096E4,9.058462E3,9.860924E3,6.4718223E3,1.9617645E4,8.236906E3,8.258406E3,3.7596016E3,3.1634395E3,5.0059883E3,3.7147192E3,3.2142737E3,1.11644795E4,5.175338E3,1.385435E3,1.2400791E3,1.7051201E3,1.4585054E3,1.6292516E3,6.346129E3,5.31673E2,1.7128557E3,1.7757109E3,2.1472114E3,1.0752302E3,3.4864705E3,1.4601875E3,1.9311133E3,4.7193223E3,1.0026846E3,3.1296196E3,1.203125E3,5.6771735E2,9.512969E2,4.8820947E2,1.1110652E3,5.7224536E2,1.284636E3,7.473004E2,8.9591504E2,1.4890508E3,2.5851486E2,2.949958E2,6.826349E2,1.2228823E3,7.620247E2,9.8724146E2,2.5647212E3,1.2981548E3,8.7630444E2,3.0013312E2,2.2728618E3,1.694535E3,2.119759E2,1.630502E3,1.1411685E3,1.8982559E3,2.175043E3,1.8385767E3,5.1547705E2,1.3887795E3,3.7336154E2,7.6279785E2,0E0,0E0,0E0,0E0,0E0,0E0,0E0,0E0,0E0,0E0,0E0,0E0,0E0,0E0,0E0,0E0,0E0,0E0,0E0,0E0,0E0,0E0,0E0,0E0,0E0,0E0,0E0,0E0,0E0,0E0,0E0,0E0,0E0,0E0,0E0,0E0,0E0,0E0,0E0,0E0,0E0,0E0,0E0,0E0,0E0,0E0,0E0,0E0,0E0,0E0,0E0,0E0,0E0,0E0,0E0,0E0,0E0,0E0,0E0,0E0,0E0,0E0,0E0,0E0],"parents":[2147483647,0,0,1,1,2,2,3,3,4,4,5,5,6,6,7,7,8,8,9,9,10,10,11,11,12,12,13,13,14,14,15,15,16,16,17,17,18,18,19,19,20,20,21,21,22,22,23,23,24,24,25,25,26,26,27,27,28,28,29,29,30,30,31,31,32,32,33,33,34,34,35,35,36,36,37,37,38,38,39,39,40,40,41,41,42,42,43,43,44,44,45,45,46,46,47,47,48,48,49,49,50,50,51,51,52,52,53,53,54,54,55,55,56,56,57,57,58,58,59,59,60,60,61,61,62,62],"right_children":[2,4,6,8,10,12,14,16,18,20,22,24,26,28,30,32,34,36,38,40,42,44,46,48,50,52,54,56,58,60,62,64,66,68,70,72,74,76,78,80,82,84,86,88,90,92,94,96,98,100,102,104,106,108,110,112,114,116,118,120,122,124,126,-1,-1,-1,-1,-1,-1,-1,-1,-1,-1,-1,-1,-1,-1,-1,-1,-1,-1,-1,-1,-1,-1,-1,-1,-1,-1,-1,-1,-1,-1,-1,-1,-1,-1,-1,-1,-1,-1,-1,-1,-1,-1,-1,-1,-1,-1,-1,-1,-1,-1,-1,-1,-1,-1,-1,-1,-1,-1,-1,-1,-1,-1,-1,-1],"split_conditions":[-5.7793535E-2,3.3919257E2,-1.0185274E-1,-2.3763818E-1,-2.394358E0,3.3919257E2,2.4907856E0,-3.316299E-1,-8.8300765E-1,-9.468972E-1,-7.9372644E-1,1.3711371E0,2.0803294E0,3.7663245E-1,3.0525572E0,3.223454E0,-7.5323E-1,4.2251345E-2,2.076533E0,2.2887478E0,2.1065314E0,2.5303593E0,3.381163E0,1.0750421E0,2.7439039E0,-3.7620884E-1,8.84E2,-2.8970048E-1,3.3919257E2,-1.0715204E0,1.1731948E0,-2.0276496E0,9.6620254E-2,-5.849789E-1,-1.082832E0,3.3400297E0,-2.4138388E-1,1.5682462E0,2.7827187E0,-8.363427E-1,3.381163E0,1.483E3,1.488E3,-1.0748131E0,-1.5225201E-2,2.0997521E-1,1.2361798E0,-9.017564E-1,2.7813842E0,-2.0991112E-1,2.4907856E0,2.5303593E0,-2.370988E0,-6.205473E-1,-8.347978E-1,-5.869785E-1,2.9403788E-1,6.0620326E-1,2.5421722E0,4.20238E-1,1.2889689E0,-1.467773E0,2.7848756E0,1.5609632E-3,4.583131E-4,-2.3878487E-3,7.79922E-4,8.1747945E-4,2.0328406E-3,1.3111206E-3,6.930208E-4,4.166264E-4,-2.2413176E-3,8.316427E-4,1.9100446E-3,3.068983E-5,1.2305604E-3,-9.375042E-4,-3.8073685E-3,1.9809898E-2,7.5301817E-3,3.1090364E-2,4.7659602E-2,-2.748856E-3,7.8282645E-3,1.0506638E-2,4.5653183E-2,1.2013855E-2,3.000026E-3,2.2050941E-2,-2.14051E-4,5.118756E-4,-4.8657437E-3,3.6906354E-2,-1.5660046E-2,4.1827455E-4,-1.1918235E-4,5.7168154E-4,3.4548359E-3,-1.1455261E-3,-3.613006E-4,1.4372752E-3,5.2992892E-3,1.150794E-2,3.8789812E-2,2.0700604E-2,1.4711727E-3,-8.929688E-3,4.591181E-2,4.35145E-2,2.0527469E-2,-9.046064E-5,-4.1723961E-4,-4.4306074E-4,-1.3259911E-3,-1.0499593E-3,-3.9717785E-4,-8.190058E-3,2.103353E-2,1.7345945E-3,3.2783116E-3,2.545569E-5,2.3430658E-3,1.0532924E-2,-1.290933E-3,-1.8513912E-3,-2.8445978E-2],"split_indices":[9,78,39,39,39,78,55,18,9,55,39,22,20,59,4,75,9,20,73,53,18,53,20,62,62,10,0,33,78,59,11,11,10,62,39,17,47,47,41,10,20,0,0,10,55,10,73,59,52,11,55,53,36,11,55,48,10,62,20,10,10,23,3,0,0,0,0,0,0,0,0,0,0,0,0,0,0,0,0,0,0,0,0,0,0,0,0,0,0,0,0,0,0,0,0,0,0,0,0,0,0,0,0,0,0,0,0,0,0,0,0,0,0,0,0,0,0,0,0,0,0,0,0,0,0,0,0],"split_type":[0,0,0,0,0,0,0,0,0,0,0,0,0,0,0,0,0,0,0,0,0,0,0,0,0,0,0,0,0,0,0,0,0,0,0,0,0,0,0,0,0,0,0,0,0,0,0,0,0,0,0,0,0,0,0,0,0,0,0,0,0,0,0,0,0,0,0,0,0,0,0,0,0,0,0,0,0,0,0,0,0,0,0,0,0,0,0,0,0,0,0,0,0,0,0,0,0,0,0,0,0,0,0,0,0,0,0,0,0,0,0,0,0,0,0,0,0,0,0,0,0,0,0,0,0,0,0],"sum_hessian":[4.5633652E7,2.1222876E7,2.4410776E7,2.1181744E7,4.113303E4,1.0432181E7,1.3978594E7,8.618087E6,1.2563656E7,1.0327026E4,3.0806004E4,1.041009E7,2.2090502E4,1.3662563E7,3.1603128E5,7.0220605E6,1.5960272E6,3.3241858E6,9.239471E6,8.457071E3,1.8699556E3,1.2377252E4,1.8428752E4,9.481298E6,9.287926E5,1.9703936E4,2.386567E3,9.247723E6,4.4148395E6,3.0944634E5,6.5849355E3,6.975126E6,4.693435E4,5.3937275E5,1.0566545E6,3.0043832E6,3.1980256E5,9.075133E6,1.6433786E5,3.796837E3,4.660234E3,1.7088828E3,1.6107266E2,1.0221954E4,2.155298E3,1.8089068E4,3.3968356E2,8.645732E6,8.355656E5,9.112344E5,1.7558213E4,2.931524E3,1.6772412E4,1.490595E2,2.2375076E3,7.6204045E6,1.627319E6,4.398051E6,1.6788621E4,1.394806E5,1.6996573E5,5.468872E3,1.1160636E3,